2122 128
， 0.31151414 -0.46424663 0.32966357 -0.91947645 -0.5720395 -0.7084529 0.26839405 0.1898286 0.26043913 -0.32522172 -0.21028662 0.35045278 -0.61937475 -0.93818504 -0.74211174 0.25591946 -0.078554 -0.15081525 0.33216223 -0.62582076 0.042064723 0.17688838 -0.40173957 -0.18539014 0.42884648 0.71939015 -0.010728505 -1.3516136 0.10555928 -0.3356726 0.30536568 0.57305866 0.35844097 0.11947493 0.117406934 -0.6868 -0.10934855 0.42830724 0.927907 0.78493255 -0.08726236 0.17392537 0.52183425 -0.6040659 0.41889596 -0.632094 0.08139354 -0.44358027 -0.01703945 -0.27703482 0.07209997 -0.24285357 -0.37078446 0.37790868 0.09806113 -0.06391951 -0.33019075 -0.028165076 0.6494037 0.41673103 0.11666672 -0.20119438 -0.16256371 0.24839117 -0.990656 0.68529904 -0.77440494 -0.036479153 0.11953486 0.22151303 -0.18854202 -0.38977632 -0.06891644 0.6575221 0.18599965 0.6766584 0.18394938 -0.8118319 0.8072706 -0.3019199 0.090628035 -0.16622314 0.7494092 0.26990518 -0.3367961 0.7302122 0.37072405 0.4011978 -0.24619757 -0.8498295 0.02649151 0.17226374 0.029562987 0.47695073 -0.66191447 0.11815137 0.72392565 -0.7140969 0.10004846 -0.49665198 0.7123813 -0.04039152 -0.54322684 1.1645442 0.4766638 -0.15955517 -0.30219513 0.765014 -0.5515021 0.018665388 -0.1137326 0.057263844 -0.80154353 -0.047260735 -0.72264254 0.65396327 0.091986515 -0.30558294 0.6183374 0.41353855 -0.029018981 0.48031357 0.38620389 0.33492762 0.68328375 0.28416783 0.6637435 -0.52190894
1 -0.5816521 0.8635142 0.5980782 -0.25540859 -1.2230731 0.449182 -0.0583784 0.50984454 -0.47314408 0.55790645 -0.93602556 -0.8113054 -1.096574 -0.54783934 -0.9685366 -0.90084606 1.011709 -0.7839312 0.037969213 -1.0232339 0.376748 0.12895429 -0.15046272 1.0440301 1.2815347 0.68176425 -0.1849355 -1.0186193 0.5351841 -1.5886192 0.43745017 -1.1458541 2.3314676 -0.1544566 0.7965369 -0.63949984 -0.17518105 -1.37268 1.4304597 -0.61045426 -0.41526374 -0.7757482 -0.9217621 0.056868248 -0.92282736 0.4124206 1.4147938 -0.16186795 -0.697651 1.5491625 -0.63426906 0.2433411 -0.27232352 -1.2991652 -0.6073604 -0.9534708 -1.9421897 -0.13670997 0.14062902 -0.4428313 -0.7515865 -0.43500468 1.448 -0.60806596 1.007741 -0.5230301 0.16589023 0.6744267 0.2764086 -0.40371403 -0.39250723 0.49080032 1.1844431 0.5917473 -0.22156292 0.031857643 2.0601635 0.096792296 0.519049 0.59578097 0.05927801 -0.5354754 -0.047804154 -0.63190144 0.0067428383 -0.9238901 1.0909379 1.2163993 0.53409296 0.68388426 0.185574 -0.17579143 -0.9173808 -1.3257643 1.3980277 0.44812018 -0.27241907 -0.13447592 -0.6210857 -0.5498326 -0.5381246 -1.203776 -0.7789846 0.2522675 0.18363473 -0.6941457 -1.0688382 0.89182496 0.047819212 -1.2524403 0.1671785 0.6391216 1.5928533 1.4014908 -0.1266687 -0.15871742 -0.38012326 1.5662836 0.3893465 0.084217444 0.27197224 -0.13031489 -0.27924615 0.11290537 -1.9617901 -1.521322 0.21917897 -0.44236952
0 0.14959213 0.56879884 0.22634041 -0.2843486 -1.3835435 0.32704943 0.13046934 -0.18742655 -1.0483121 0.19957957 -1.3693329 -1.6876962 -0.13114202 -0.16540422 -1.4063652 -1.4541109 0.61911476 -1.533907 0.89061946 -0.6741532 0.60883 0.3061919 -0.77567536 0.6870682 0.8844939 1.0791643 -0.113929056 -1.4944838 0.7721681 -1.4889958 0.2424355 -0.9471667 2.814247 -0.3150541 0.7683379 -0.5331425 -0.34033054 -1.7724031 0.79294056 -0.59134144 -0.37496114 -0.5426395 -0.85305583 -0.104619704 -1.2029661 0.64796305 1.5728065 0.4546486 -0.15645513 1.899954 0.5728384 0.58845824 0.1969273 -1.013231 -0.49019858 -1.0493709 -1.6583906 0.3177132 0.11773307 -0.24815571 -1.2060566 -0.82426816 1.825977 -0.67243797 1.4633887 -0.4765762 -0.27694318 0.5732493 -0.00083487295 -0.31800064 -0.7289283 0.8609674 2.026727 0.6552063 -0.10278398 -1.1358975 2.22132 -0.895227 0.034508377 0.18609612 0.4775624 -0.07312964 -0.047681045 -0.27571008 0.13235016 -0.815806 1.3024322 1.4371245 0.45679128 0.9091923 -0.0042322204 -0.44720224 -0.60363036 -1.6072791 0.9887908 0.42622957 0.12606445 -0.69475406 -0.62623864 -0.56110805 -0.92517805 -1.2984843 -0.8237552 0.50186193 0.48702428 -0.49631467 -0.5495173 0.09531782 0.1537846 -1.4220356 0.5799509 -0.20615579 1.0804564 1.1027142 -0.2507206 0.12778796 -0.37584016 1.5503135 0.07466227 -0.22126873 0.75053984 0.29574326 -0.34874958 0.3010461 -2.3677175 -0.8065083 -0.24628666 -0.3742118
、 -0.9194688 0.38603416 0.6709882 -0.98853606 -0.037281003 -1.697106 0.6882019 0.18405922 -1.2917335 -1.4130679 -0.7481845 -0.4995801 -0.27287263 -0.69273543 -0.4755838 -0.5754323 0.10819429 -0.0606969 0.0100119775 0.05448526 0.3114312 0.77144235 0.10607981 -0.3726108 0.16002257 0.8151581 0.6892372 -0.2515284 0.35069814 0.4420605 -0.088860124 1.1332598 2.0013587 0.6007969 0.08623547 -0.627865 -0.6061549 0.110249855 0.2657875 0.3912686 -0.36093402 -0.0066372952 0.49899396 -0.942088 0.08668574 -0.3463028 0.52067715 0.113038436 -0.06350716 -1.3306255 0.44420993 0.01921833 -0.43146986 -0.13023642 0.3265947 -0.14328592 0.12048106 -0.5161463 -0.028179454 0.211083 0.9309506 0.1876048 0.49280733 -0.5840254 0.022042494 -0.50003815 -0.08754734 0.61536175 0.12354052 -0.085741006 -0.08356632 -0.35332263 0.6352848 1.7294916 -0.03455677 0.6171649 -0.56660897 -0.18563104 -0.01067014 0.2028907 0.044688184 -1.002676 -0.48404232 -0.52221775 -0.6674264 0.25590506 0.25323963 1.2389435 -0.17100844 -0.48196328 0.15502232 0.17354415 -0.25193414 0.9323328 -0.9851429 0.6124535 -0.0026253222 -0.71966 0.22190365 -1.1486219 -0.49993664 -0.6975452 0.8000533 0.49225786 -0.3820318 -1.2576425 -0.06624635 -0.9067835 -0.90831006 0.35388654 0.4701716 -0.43577132 -0.9574376 0.2719979 -0.80539906 -0.04197466 -0.26779762 0.41785496 -0.08162551 -1.6541845 0.13001199 0.8510856 0.62474775 0.29991472 0.93819416 0.10375799 -0.18538085 -0.084723845
2 -0.4591494 1.1425006 0.47225633 0.111438714 -0.5433742 0.40132007 0.43721423 0.40992895 -0.46260872 0.71613014 -0.8806582 -1.1714873 -0.85899633 -0.47087714 -0.9124035 -1.2591711 0.92109406 -0.8039132 0.41499352 -1.0697936 0.5369284 0.3306661 -0.646869 0.30211997 1.566444 0.54993546 -0.21852693 -0.2190654 0.6329517 -0.87513137 0.40127498 -1.0246137 2.0617146 0.10124108 0.90811926 -0.116529725 0.0048010233 -1.0489235 1.1629508 -0.59230196 -0.31484643 -0.35421106 -0.85108703 0.13084821 -0.8183352 0.30846286 1.2205936 0.18464379 -0.43317932 1.2846668 -0.33828062 0.7474542 -0.19259807 -0.8693142 0.0024141558 -0.25499845 -2.0506072 -0.15422226 0.20474258 -0.21818903 -1.3222525 -0.32111993 1.6516443 -0.37292826 0.86259884 -0.3441592 0.24972777 0.53617024 0.14740893 -0.3261747 -0.12446361 0.49829423 1.3162574 0.35691765 -0.08448308 -0.29363087 2.1106992 0.38048837 0.50248295 0.38560447 0.30724353 -0.65293497 -0.5221532 -0.8660132 0.19745766 -0.8258542 1.1928847 0.8445533 0.43860883 0.5575093 0.51978123 -0.45107782 -0.7327773 -1.14508 1.0543392 -0.020955887 0.13167426 -0.00021257377 -0.52392447 -0.57068646 -0.9196377 -1.0214928 -0.62393904 0.27313027 0.091958426 -0.31304488 -0.70969266 0.72882664 -0.2065541 -1.2566606 0.80159146 -0.21095851 1.7027421 1.2774892 -0.89439344 0.00022715399 -0.0816519 1.783025 0.41797167 0.11366828 0.2448119 0.07452838 0.019076217 0.011783792 -2.2011118 -0.9919906 -0.00070420926 -0.5253722
无 -0.32950905 2.371805 -0.77461475 0.1793332 1.0202262 0.18777658 1.3758508 -0.3711949 -0.74494463 -0.93824965 -0.7176434 0.45067298 -0.39627948 1.0245206 1.4387343 -0.12298581 -0.12959237 0.0071501695 -1.2025391 1.7170447 -0.3715115 -0.06958082 0.42872578 0.2930762 -0.91849786 0.81892633 -1.0307617 0.64739114 -0.42527437 -0.09139982 -0.6057999 0.6748292 -1.3865646 0.8572867 -1.0320144 -0.2752876 -0.9854274 0.07803773 0.19289763 2.5290518 -0.6580597 -0.61377203 0.24764274 -0.49601516 1.5801245 -0.9525411 -0.22830732 -0.29500926 0.41988757 -0.39548346 0.6422032 0.7112755 0.55266994 -0.17653924 1.422317 -0.9581503 1.420957 -1.3003842 0.055854995 1.1454446 -0.1612358 1.4543774 -1.0548244 1.1293149 -0.59132165 -0.60657436 -0.088761084 1.2097855 -0.312819 0.17801915 1.0999149 -0.27508292 0.20546925 1.6476203 2.040516 1.8357937 -1.3272709 0.57919174 0.59580284 -0.55339247 -0.84164065 -0.5945392 0.48189434 -0.48951575 -1.4638577 1.6291776 -1.0890589 -0.048359342 -0.04319619 -1.789481 -1.3181313 0.071854845 0.62478584 0.27162942 -1.4724993 -1.3342032 0.14437138 -0.039068162 -1.117626 -0.33603555 0.067545 -0.66791093 0.23067962 -0.15626836 -0.57476133 -0.9442218 -0.2653678 0.7730977 0.31639868 -0.36029094 -0.6025794 -0.29265904 -0.74451053 1.4664801 0.23948076 1.3105121 -0.21703477 -0.36693516 -0.6971479 -0.16413327 -0.30105487 0.042534538 0.14813009 -1.4729182 0.67432547 0.9942082 1.2304736 -0.71750337
： 0.47071597 1.2146263 0.48782915 0.07650947 -0.87695944 -1.0756232 1.0936646 1.1075481 -0.7204681 -0.063963465 -0.70485336 -0.54531366 1.4007572 -1.5559919 0.8559611 -2.1930287 1.1016709 0.5843251 0.25882733 0.009837626 1.1424391 0.009929702 -0.72400093 -0.07441739 0.7681902 -0.5846612 1.055533 -0.759265 0.51296633 -0.17059378 1.0368763 0.0069124503 1.4288238 -0.51131576 0.4775592 -0.8442882 -1.5496819 0.829792 -0.044384647 0.1706011 0.23730834 -0.32524607 0.35290813 0.1544521 -0.8331752 -0.29351783 0.44210362 1.2659018 -0.79807365 -0.33684564 -0.7326764 -0.75379497 -0.47365218 -0.2933449 -0.8472007 -0.43202657 -2.0781963 0.59589016 1.003491 -0.496151 0.7056203 0.0018981826 -0.5404978 -0.2867471 -0.12675963 0.57004464 -0.81619346 0.08422049 0.5727105 -0.31591374 0.036217477 -0.03616409 -0.13861497 1.1694995 -1.1866639 -0.0861678 1.46573 -0.14913623 0.67236316 0.3505913 0.64145243 -1.2314767 -1.0529284 -0.57904094 0.76024 1.1912628 -1.5118667 -0.38076192 -1.5132197 0.24037652 0.4888738 0.039306942 0.9376054 0.68443865 0.053391628 -1.0099224 -1.2593648 0.82094127 0.09384481 0.5635796 0.33825073 -0.65154624 0.30829087 0.88153154 -0.46356878 -1.2119453 -0.12161453 -0.08578156 -0.21054333 0.83408594 2.1438925 -0.402836 0.4890607 -0.49778038 -0.7847767 0.2848838 -0.07049415 0.034495305 0.76594895 -0.56140155 -0.15807582 0.6697789 -0.59534794 -0.31058076 0.43981367 -1.6132617 0.14009033 -0.5044076
. 0.42983243 -0.013871718 -0.20139149 0.10395981 -0.74539644 -0.7481146 0.51258665 0.1982922 -0.99433285 -0.170905 -0.75688326 -1.5407616 0.030906172 -0.6359274 -0.034478914 -0.9209422 1.1785063 0.35802546 -0.1391237 0.04034938 0.3308618 0.14970496 -1.3271692 0.06419251 0.051783983 1.0955957 0.48462504 -0.29514527 0.7465244 -0.6714589 -0.42816603 0.39126536 3.143314 -0.3430133 1.5675409 -0.8878329 -0.7176482 0.24985908 -0.08478303 0.07635576 0.34813705 -0.28672585 -0.596194 0.3250679 -0.7702866 0.39932835 0.86204296 -0.19712847 -1.1071322 -0.1766569 1.8609546 -0.2694041 -1.0632784 -0.56229484 0.07015747 -1.8694226 -1.4469372 0.18471 -0.51226974 -0.97687936 0.08748971 -0.52749693 1.6729472 -0.11814575 0.96041524 -0.5409621 -0.33922923 0.66850007 0.21370262 -1.077716 -0.55860865 1.4460101 0.7596283 0.7868431 -0.1332503 -0.12506452 0.5801415 -0.4543135 -0.4681328 0.6825077 0.2851396 -0.033739064 -1.3259678 -0.021459538 0.22890247 -0.1764352 0.46342197 0.73089206 -0.24413344 0.8869677 -0.60183346 -0.38634065 0.5178188 -0.32853281 0.40356654 -0.77116984 -0.13713033 -0.23799151 -0.16937208 0.29154205 0.8123236 -1.4564519 0.34050757 0.44537866 0.9318181 -0.25952765 0.40348774 -0.5204398 -0.1975346 -0.11956748 1.0314941 -0.7217271 2.1308162 -0.04688688 -0.5110108 -0.5234619 0.40081117 0.54784966 0.39769596 0.057094395 -0.24730453 -0.5543834 -0.8617502 -0.2323174 -0.84859604 -1.4685771 0.053767696 -0.85893303
院 0.26633963 1.1697589 0.40596375 0.8557009 -1.3219726 0.1395635 -0.34782863 0.12144985 0.9351975 0.67791545 0.94123226 0.453198 1.024741 -0.5898846 -1.5951401 -0.185186 0.38048938 -1.2327093 0.14339684 -1.1639566 -2.269612 0.10206806 -0.08706054 1.2322088 0.23508753 -0.04178304 1.7432112 -0.29144084 -0.14324467 -1.3360214 0.44876137 -1.1291991 -0.25657287 -1.4282384 -0.98803073 -0.43977186 0.50606227 1.7599059 0.03950358 0.45464462 0.19572532 0.46894625 0.4188183 -0.3015553 -0.13979082 0.42309952 -0.2627084 -0.8011094 -1.0915893 1.3766491 -1.9570187 -1.364528 0.5217831 -1.5832587 0.41771808 -0.3730867 -1.8245103 0.14925066 -0.15128408 0.19494534 1.987711 1.6149993 0.34728855 -0.6221346 1.4796648 -0.12153093 0.4896511 0.30585402 -0.55443513 -0.9930354 1.7718695 -0.44401443 -0.42739433 1.2248281 -0.22523023 0.17911884 1.2730844 0.56357884 -0.4312484 0.52602595 -1.3098004 1.6817676 -0.308251 0.01913175 -1.7985945 -0.39424816 -0.38948217 -0.31208625 0.6515656 1.0781313 0.11563313 -0.9677165 0.29889995 -0.1287997 0.7385831 0.8232022 -0.07747059 -0.4594762 -2.2178102 0.4254771 -1.218675 -1.9032447 -0.030531801 -0.74519825 -1.4427499 -1.266608 -0.39567187 1.204443 -0.6957561 -0.56988794 -0.08862007 -0.4737846 2.919161 1.7214329 1.1935076 -0.28302315 -0.24007028 1.9800347 -0.5252194 0.94076765 0.20748302 0.9289539 -1.4714352 -1.3770587 -0.51227623 -0.62869275 -1.7711662 -0.23109256
3 -0.6315564 0.42156047 -0.4867996 -0.48236328 -0.15374765 0.16740726 0.644187 0.55627966 -0.35040542 0.8103061 -1.2388572 -0.9903723 -0.29952508 -0.30552498 -0.59985566 -0.7585909 0.2074244 -0.002027522 -0.1184514 -1.1985937 0.8833285 -0.63267154 -0.46923652 0.4205843 0.9232018 0.46544683 0.029951017 -0.3725927 0.6435478 -1.5665559 0.6090634 -0.2672053 1.824488 -0.20067185 0.6111708 -0.3662779 -0.62737834 -0.3430892 1.3516977 -0.25409156 -0.14417753 -0.5293612 -0.56044704 0.58566236 -1.0430697 0.2519635 1.2269677 0.08239062 -0.21374667 0.70273376 -0.5513879 0.3554128 -0.5071975 -0.5568069 -0.11891401 -0.6770765 -1.1334496 -0.7422231 0.30518818 -0.38413975 -1.2035135 -0.31607813 1.113077 0.02112294 0.71857256 -0.698768 -0.2777177 0.050927714 -0.29403502 -1.0236056 -0.15912923 0.84731984 0.8504953 0.8104937 0.25410956 -0.16086748 1.4677465 0.08607479 1.156871 0.56169057 -0.348074 -0.5389104 -0.6600687 -0.7496619 0.25684312 -0.4002117 1.059323 0.76389635 -0.18568051 0.6544061 0.29295212 -0.62575483 -0.08785056 -1.4033458 1.0122393 0.09941607 -0.14401269 -0.022141624 -6.0622973e-05 -0.08345083 0.09658942 -0.9438672 -0.39985153 0.9004325 0.009357041 -0.6108162 -0.9764045 -0.018621067 0.21252304 -1.7190328 0.6779986 -0.04196478 1.8759042 0.82718873 -0.51265776 0.3404658 -0.42173737 0.6536005 0.8273109 0.67865396 -0.61416423 -0.34414357 -0.4479112 0.06475951 -1.9439896 -1.2953655 -0.025615433 0.10695709
- -0.3491714 2.1572723 -0.073759355 1.6758721 -1.5037184 0.22932662 0.13656689 1.4041384 -1.8885566 -0.9074785 -0.40313274 -1.5100592 -0.7115797 -1.003804 -0.6475169 -1.5199273 1.244442 -1.0149539 0.03433002 0.11241852 -0.9081845 1.4569962 -1.3666989 1.6222932 0.8950131 0.93403774 0.3726152 -0.042547796 0.38083827 -0.11547868 -0.07936817 -0.1031419 2.91661 -0.38615614 0.6650168 -1.0508713 1.0495672 -1.4472531 -0.26083174 0.5421678 -0.032105215 -0.36553338 -0.89515036 -0.4909847 -1.4083643 1.3257424 0.3748368 0.11520106 -1.4752935 -0.02776961 -0.5702429 -0.20570369 -0.5789624 -1.7764752 -0.9988024 -0.013991358 -3.3276298 0.9911274 0.59224933 -0.7052229 -0.4546699 0.48308107 2.2600706 -0.293128 1.0470073 -0.38482812 0.1300761 0.5960909 0.21259877 -0.14318429 -0.12558553 0.6365199 0.26161298 -0.4482892 -0.06972335 0.33936366 1.6749985 0.36944947 -0.6734347 1.0588611 -0.34149614 0.03369299 0.9078415 -0.24692732 -0.6184669 -0.60969377 0.5648341 1.1095785 -0.39549217 0.48257115 0.42587727 -0.3670363 -0.80962014 -1.1935538 0.059756115 -0.312051 -0.17291933 -0.1876552 -1.280178 -1.026781 -0.97802246 -0.8176181 -0.137756 -0.9258439 0.8294382 -0.07763984 -0.9559451 0.9920526 0.253373 -0.3244738 -0.3384029 0.58406264 1.3347442 1.1448449 -0.7618689 -1.4074106 -0.6590864 1.7370707 -0.17406347 -0.5433279 1.1693572 1.7491724 -1.1125246 0.03943342 -1.3784316 -2.2907557 1.2211279 0.1461151
及 -0.34532508 0.15659513 -0.67023367 1.1335046 -0.16193359 -0.072295964 0.8936013 -0.29355127 -0.82483363 -1.4408615 -0.30266356 0.46674237 -0.096244685 -0.52477044 0.027396455 0.5920879 0.6856352 0.8037644 -0.16498674 1.1870402 0.57256943 -0.5628985 0.010861247 -0.07608411 -0.28654185 -0.12668295 0.13488409 0.6243155 -0.27963346 0.6854399 0.9205236 0.025346339 -0.51770884 1.2023993 -0.15408297 0.02479364 -0.0418979 0.80935216 -0.4149246 0.68177325 0.7650537 0.25892687 0.5116932 -0.6543763 1.1726681 -0.99484 -0.5510117 -0.47639972 -0.09085392 -0.5040153 -0.42642978 -0.2709489 0.04923239 0.72769004 0.54803157 -1.6214551 -0.80352193 -0.38452628 -1.1699563 0.103577875 -0.42679265 -0.8875719 0.023725582 0.0838633 -0.35981083 0.18159474 -0.29853377 -0.037487727 0.59035957 0.06534708 -0.13360554 -0.38539928 -1.287766 0.48778385 1.000657 0.330141 -1.8708102 0.7261971 0.55491406 -1.4037145 0.23860642 -0.7819027 0.8895036 0.46040928 -0.35870433 1.4055058 -0.9304578 -0.2607006 -0.29143432 -1.051775 -0.6224697 0.34853458 -0.77014786 0.62638104 -1.0514156 0.25186506 -0.17313144 0.08287006 -1.0248649 0.04771615 0.71315545 0.021881567 0.9761405 0.165845 -0.035238408 -1.2229475 1.7209737 0.5873691 -0.7826011 0.032794036 1.703873 0.9100023 -0.6611853 -0.4080691 -0.27550995 0.15222093 0.28995615 -0.6723857 1.0959462 0.309741 0.27371967 0.031878836 0.68964976 1.3076293 1.6347232 0.8892211 0.88597125 -0.12342427
后 0.30892593 -1.7696463 -0.024400461 0.095698014 -0.54227513 -0.5278003 0.49181014 0.8634926 0.5589725 -0.18930733 0.8384164 0.4929742 1.3028631 0.14019859 -0.4530651 -0.029014202 -0.5369263 -0.7065644 -0.63296944 -0.285631 -0.9695785 1.0470634 0.39759094 0.7474265 0.8560445 0.98166406 0.29380426 0.9804513 -0.96584934 -0.5408727 -0.39968967 -0.65812325 0.8220627 0.3882155 0.27237755 -0.27973026 -0.4822848 0.6184915 -0.755223 -0.13388135 0.22998515 0.16535403 1.1783645 1.0367854 -0.7047765 -1.6336101 0.26000202 0.45002496 0.29460937 1.4182113 -1.1836777 -0.2130282 -0.07179753 0.638634 0.58928984 0.7259095 -1.354201 0.34869775 0.4913689 0.101940416 0.617185 0.3244805 1.516873 -0.19749391 -0.31724006 -0.38857105 -0.06592245 -0.8289741 -0.14479943 0.08417086 -0.540505 0.2874651 -0.35331365 -0.9590197 0.9107063 0.472829 0.6502825 0.39366814 1.3436114 -0.69519657 -0.70602447 -0.23050201 0.27191037 -0.64284915 -0.28230283 0.27676007 -0.7499689 -0.3921495 -0.23156267 -0.11257054 -0.1796098 -1.2653626 -0.7762621 0.6498972 -0.72905284 -0.40297782 0.20202862 -0.06858241 0.24033538 -0.18455069 0.25106826 -0.16753505 -0.6685113 -0.44064298 -0.79491997 -0.29125223 0.67593753 0.8921555 0.818377 -1.0782855 -0.15307665 0.45879573 -0.61139625 -0.47474596 0.3498505 -0.002264344 0.88695043 -0.49439073 -0.35509127 -0.204354 0.86792564 0.7768585 0.19542956 -1.6962838 0.25984812 0.6106506 -0.9137642 -0.063821234
痛 -1.6452477 1.2647401 0.08433052 -0.10933198 0.2024942 0.8395332 1.3549609 2.4643075 -1.1981801 1.510973 -2.1062944 1.754843 -0.25756884 0.10142006 0.68844014 0.9142304 0.8193639 -0.021133825 -1.9037424 2.9630387 0.21187145 0.5397672 -0.9782393 -0.35174763 -1.2659988 1.6593604 -2.3938403 0.44827756 -0.8252193 -0.46327606 -0.23357067 -1.2824638 0.5330694 0.3765392 0.0690281 -0.11538198 -0.453915 -1.3490121 1.0327395 2.2088377 -0.44044337 0.86882734 0.36999083 0.2838544 1.032347 -0.487895 0.46107486 -0.96734697 1.9060761 -1.9387763 -0.7374556 2.2170396 0.38818613 -0.82393 0.0010761762 0.58635825 -0.675019 -1.8365848 -0.3305082 2.1178637 0.08461782 -0.90457016 -1.0681291 1.3594093 -0.6374077 -0.30246592 -0.30041447 -0.32404852 0.45828757 -0.7207003 -0.023847375 -0.029376857 0.13541105 0.7560326 1.4066843 -0.9463081 -0.7960165 -0.28797564 1.6172948 -0.6581053 -0.20325297 -0.02381152 0.9400385 -0.41545165 -2.333524 1.5177233 0.4166388 0.87327826 0.67970407 -1.8692609 -0.44161138 -0.23305479 -0.9856426 2.031622 -0.57742894 -0.07477995 0.2076097 -0.31876135 -0.2276283 0.3223151 -1.9111435 -0.9115132 1.1112653 -0.18586862 0.40236014 -1.58895 -1.2892798 2.0883408 -0.24712294 0.5614948 -1.1802417 -0.054275412 -1.9802446 1.7653711 1.0804887 0.07384864 1.0918692 -1.3777965 -0.68563664 0.8085673 -1.2868322 -1.037206 0.4950494 -0.06858537 0.69880944 2.1158524 1.3313012 0.3398233
患 -0.5432632 -1.6328589 -1.5094928 1.1692704 -0.5235043 0.8413871 -0.09785099 -0.49562222 0.7784386 0.72901744 0.58819324 1.1269681 -0.6404424 -1.8576959 -0.91260964 -0.4106003 0.09061593 -0.90305376 -0.0033328175 0.16296057 -0.026340313 -0.046329856 0.3561844 -0.6081177 0.13123603 0.32781228 1.4844102 1.0413083 -0.847771 -0.73047423 0.16020152 -1.0659146 1.2213777 0.16918597 1.0780382 -0.6668959 0.88677436 0.6628359 1.7296408 1.3444147 0.34423125 -0.3889612 1.8428491 0.06098729 -0.065728664 -1.3447907 0.15623672 -0.36237055 -0.540199 1.675743 0.016985726 0.8145394 -1.7708652 0.8032331 0.3831974 1.1502218 0.3246294 -1.0190138 1.0149273 0.08361906 0.5217984 0.3783806 -0.68654585 -0.49269688 0.5936097 0.94029146 0.3831861 1.5938483 -0.5267773 -0.83448315 -0.23067474 0.17092578 -0.14865775 -0.89735955 0.5027875 -1.6532706 1.4003184 1.9747143 1.292856 0.18208969 -0.35813048 0.9446748 -1.0048392 0.23281357 0.68997157 -0.43693495 1.5072396 -0.34092593 -0.16889097 1.4878751 -0.50059676 -2.184257 -0.62865967 -0.29941925 0.83939683 1.0072213 -0.3816226 -0.8809309 1.0662831 1.6608018 -1.8501128 -2.06839 0.31233707 -0.25630003 -0.40483138 -0.10459804 -0.20355561 0.98100483 -1.2733139 -2.4725213 -0.9518752 -1.0519452 1.3344204 0.897405 -0.14622988 -0.5194945 0.47747463 -0.022455825 -0.70163935 0.004797675 0.4933858 0.044817798 -0.13160539 -1.9739312 -0.4524946 -0.24232738 0.5468674 -1.5635508
性 -1.6793832 1.0865445 0.97866136 -0.20708287 -0.9175596 -0.84577364 -0.60628027 -1.4255184 -0.93222946 0.55391824 0.38265088 0.8351829 1.5166082 -0.9716433 -0.44012922 -1.2698553 -0.43722564 -0.30968785 -0.87319446 0.68113667 0.621625 0.07962162 0.3221966 0.33867514 1.3182918 -0.7471573 1.2326081 -0.56721777 -0.75851625 -1.0678674 0.061830472 -0.18003884 -0.56977683 1.0568922 0.73218894 0.532081 -0.6315833 0.83948183 -0.0134465685 -0.13546287 -0.935886 0.8296532 -0.92475504 -0.62388176 0.8495158 -1.1346017 0.27637318 -0.44958273 1.0843012 0.13385962 0.23580205 -0.8869825 0.0030141799 0.6678135 1.3854566 1.3010647 0.3455024 0.5031549 -1.1704482 1.565546 -2.1722064 -1.1845083 -0.4094094 0.76394176 0.85667413 -0.5501995 0.042462293 1.4686791 0.18845545 -0.054567665 -0.36916345 0.5914142 -0.3771363 0.1077502 0.48835957 -0.3691577 0.26773107 1.25848 1.0260723 -0.6510068 0.91662216 1.2514806 -0.48352844 0.50070673 -1.8613703 0.8015845 -0.80092406 -0.20048164 -1.176701 -0.3218703 0.18255794 2.0052142 -0.48833248 -0.053807527 -0.26455376 1.0801061 -0.20134227 0.008201204 -0.35081625 -0.8310619 2.0420427 1.3523259 0.54717165 0.11005942 -0.19047086 -1.4604161 -0.33061442 0.16620126 0.0044864076 0.017365558 -1.3600863 0.27847087 -1.477924 -0.2506893 -1.3689132 1.1031688 -0.34452504 0.18182476 0.5917712 0.9947568 -0.7555454 -0.09218217 -0.12572047 -0.34803322 -0.22338754 -0.8454104 2.1575634 -0.63378537
/ -0.012582766 1.5271991 0.27682784 1.0979422 0.016405644 -0.1405772 -0.3871551 1.8194939 -2.2299924 -0.23232199 -2.8920226 -1.070948 -0.5838989 -0.92780405 0.09814047 -0.89788485 0.8266921 0.3655556 0.18759942 0.60234076 0.058596026 -0.43725118 0.02972081 0.24409719 -0.74413264 0.47654286 0.49037227 -1.4764695 0.6239567 -0.9460366 1.2037358 0.4440132 1.7248876 -1.1719666 -0.80910945 -0.01809646 -0.5174615 -0.54280317 0.2502708 0.98620874 0.7961244 -2.0286856 -1.5561165 0.42065206 -0.52561677 1.9646584 1.0993551 0.12491657 -0.38366717 0.61375046 2.1109135 -0.49425605 -0.5136055 -1.2111381 -1.8403529 -1.5252259 -1.627741 -0.9002277 0.6384724 -1.0278716 0.3326563 -0.9174016 1.1293144 0.21430771 1.598932 -0.5943113 -0.8093442 -0.12046549 0.41134205 0.17367506 -0.73145044 -0.9743057 2.0339975 1.1413622 -0.66300815 -1.7534548 2.1841276 -0.4667999 -0.13132286 -0.01531181 -0.1676712 -2.3882263 -0.36637124 0.29518062 1.0083249 -1.6258193 0.9403149 1.4414518 1.0480405 -1.1090046 -0.17129056 1.6448729 0.02226584 0.19861513 -0.049781483 0.7609787 -0.097027704 -0.71817625 -0.27504402 -0.5117122 -1.2787758 -1.8563468 -0.34401846 1.278095 0.4197408 -0.65713507 -1.0601765 -0.58425033 0.4566708 -1.9425515 0.19838808 0.012486966 2.7244065 -0.55811745 -0.5163188 0.18449579 -2.00266 0.038868736 -0.3957097 -0.10296332 0.91846365 -1.1713946 0.4115796 1.5295554 -1.6607124 -3.3477664 2.2894104 -0.7684138
5 -0.4754188 0.68536144 0.2996175 -0.42476758 -0.66448265 0.41104093 0.07746304 0.5336318 -0.46841118 0.8679112 -0.9301232 -1.0690724 -0.26996404 -0.0032290781 -0.97607505 -0.90076214 0.7100691 -0.5175977 0.35965893 -0.92441297 1.0178238 -0.48987105 -0.21079023 0.38305035 0.97477055 0.45173183 -0.6198934 -0.37150368 0.8782083 -0.97857094 0.20067084 -0.8214448 1.7092607 -0.12500423 0.67207366 -0.63692755 -0.52454156 -1.0188204 0.7880798 -1.0771677 -0.013416904 -0.3717869 -0.73926955 0.5379441 -1.2730556 0.35054672 1.6118653 -0.06661188 0.19934022 1.6515352 0.06247767 0.633724 -0.47038332 -1.07269 -0.44049093 -1.2872592 -1.5026251 -0.25892234 0.39077976 -1.04119 -1.4828602 -0.40595764 1.1031617 -0.14697431 0.79127204 -0.40898415 0.09456951 0.4242282 -0.069579445 -0.64872587 -0.41822183 0.88282156 1.0661324 0.5005425 0.043503914 -0.760481 1.6787207 -0.23421396 0.45280275 0.567078 0.15010397 -0.55608815 -0.5569624 -0.9480967 1.1084521 -0.37998226 1.3894511 1.2824587 0.24323192 0.7258162 0.09766969 -0.03444545 -0.64922476 -1.2107568 1.0310458 0.11968905 0.060184438 -0.19133902 0.09447784 0.14763987 -0.1624865 -0.39465013 -0.767978 0.47089046 0.4231565 -0.20808072 -0.50935894 0.35902065 0.034657486 -1.2805519 0.58780414 -0.6915915 1.6654723 0.43581143 -0.74736494 0.04778501 -0.8589916 0.91938716 -0.21203528 0.4496064 -0.23712757 -0.16000006 0.2057704 0.27716768 -1.7296602 -1.0789176 0.13073726 -0.20518939
未 1.5823553 0.32281193 0.4513874 -0.29221028 -1.2381785 -0.6910109 1.2115802 -0.44098386 0.29762354 0.8427123 0.10367049 2.1156003 -0.14959894 1.0288436 1.0029596 0.3800074 -0.90672785 -1.7819645 -0.8831437 0.87390834 -0.4752641 -1.3072178 -0.9243549 0.968956 -0.9217832 1.0032941 0.6221236 1.7849413 0.50240785 0.8497149 1.3228229 1.5720546 -1.6809068 1.1430997 0.2505502 0.34744856 0.70926684 0.48518628 -0.68486005 0.3778119 1.3391242 -0.058929324 0.35792422 -0.5493487 0.71524745 0.10143978 -0.9234152 -0.3500313 -0.40344986 1.0607241 -0.097191446 -0.92788804 0.88779306 1.9826081 1.4753288 -1.4054435 -0.7277824 0.16441773 -0.32384527 -0.8301166 0.4406 1.1976162 -0.41638583 0.8204995 -1.539967 0.40710688 1.1678799 0.15146987 -0.20938982 -0.7594569 0.7096185 0.12409524 -0.55764455 1.2560273 -0.12236962 1.6074317 0.18339874 1.4389968 0.21596077 1.1557064 1.0892551 -1.3026321 -0.107525185 0.2793343 -0.31348744 0.8383254 -1.1500688 0.5345007 -0.061144818 0.19703476 -1.8948855 -1.1664006 -0.83373255 0.19166459 0.048352703 -2.2306638 0.2569864 -0.18656398 -1.9679892 1.2614915 1.0658622 -0.71100175 1.5718378 0.20271091 -0.4715686 -0.59211683 -0.6314889 0.46532467 -0.55267125 -1.7344943 0.21897782 2.7286513 0.68624777 -0.16202156 1.6532012 0.44564703 -0.9949655 -0.3716234 -0.48477885 0.6362225 0.15756276 0.0484548 0.20642576 -1.1190277 0.6307234 -0.20484498 1.1433756 -0.8978077
4 -0.56506884 1.1708667 -0.024393898 -0.13515791 -0.6479153 0.44780967 0.14630117 0.633012 -0.8846032 0.7649505 -0.69446397 -0.9526278 -0.27216515 -0.43391353 -0.79567575 -1.3152932 0.34503138 -0.32026848 0.018812599 -1.4400858 0.57298845 0.032667838 -0.22841853 0.53344184 0.96269464 0.55169564 -0.23146506 -0.30949637 0.6627375 -1.2589252 0.68266696 -0.60159475 1.6887101 0.00453913 0.44321725 -0.6699531 -0.31205064 -0.38374257 1.1008713 -0.374095 0.023927959 -0.5269893 -0.40486225 0.3714902 -1.1999065 0.22068371 1.1384891 -0.11761898 -0.06755447 1.5547334 -0.49954268 0.4381564 -0.49693516 -0.71898013 -0.2688159 -0.9059264 -1.6901951 -0.24314235 0.38115507 -0.4066156 -0.88639426 -0.5727279 1.3268698 -0.43321404 0.5219968 -0.47412974 -0.2525479 0.227097 -0.035036378 -0.72446525 -0.31886804 0.5919273 0.8294707 0.7018175 -0.07160636 -0.342729 2.0036075 0.122277915 0.6365006 0.64406085 0.14641517 -0.53269243 -0.6744948 -0.7733735 0.66399556 -0.4116887 0.9925811 0.6589284 0.11731302 0.6900507 0.17727198 -0.14631887 -0.676426 -0.928469 1.1837416 0.241203 -0.09944937 -0.18174447 -0.40062585 -0.009662791 -0.03279449 -0.79803747 -0.572008 0.39534763 -0.057346307 -0.40295094 -0.70982456 0.45334974 -0.0834099 -1.5281594 0.58368325 -0.107145764 1.4381354 0.63004327 -0.7254023 0.022451922 -0.7417449 0.9003984 0.21784508 0.496409 -0.15416856 0.14660668 -0.18204822 -0.34338033 -2.1886537 -1.5112613 0.13320534 -0.26925287
者 -0.2507707 0.030885456 -0.73220485 0.4422161 -0.76623964 -0.33690953 -0.19474377 0.8722516 0.7290776 0.22800365 0.5753133 -0.92538846 -0.4037936 -0.9885995 -1.0386897 1.2106082 -0.45538723 -0.120828345 -0.66652113 -1.6129231 -0.90687734 0.7183057 -1.5239074 -0.16955958 1.5267148 2.4205556 -0.45012692 -0.5857791 -0.13977593 -1.3424752 0.06921857 -0.810684 1.587526 -0.066897586 -0.56750953 -0.27151954 -1.2926112 -0.551216 0.59916264 -0.23514275 -0.23298098 1.7926431 0.46695548 1.4724267 0.030185305 -0.599815 0.5480653 -0.09773965 -0.055161335 -1.527614 -1.6153125 -0.34885213 -0.61966187 1.1575985 1.0922805 -0.16123047 0.20665766 -0.40781626 0.2006194 1.6116503 0.84341645 1.2524805 -0.07739612 -0.16485716 -0.73562914 0.4994212 0.48946834 0.694988 1.7990196 -0.10587599 -0.015053403 0.5683812 0.8709371 0.20966329 -0.36277825 -0.764043 0.73816484 0.12292507 0.4106301 -0.66359293 -0.3019823 1.5627215 0.62932634 -0.92446697 -0.28987202 -0.23588882 -0.22586226 -1.569089 0.1744855 1.3444172 0.53939813 0.13748236 -0.059370663 0.17797959 0.113494106 -0.99285525 0.5121787 1.2868252 -0.34258905 0.14927611 -0.8420009 -2.1962821 -1.3053538 0.88983697 1.145019 0.75024176 0.53659403 0.6681882 0.43445218 -1.7448853 -0.57870436 0.6408909 0.3203055 -0.36170247 0.6276986 1.8524762 -0.1705376 1.5868574 -0.8690584 0.67630965 0.5626573 0.104335435 -0.666055 -0.09289239 -1.5241231 0.97931385 -2.0715916 0.53513235
术 0.53434986 -0.55763483 1.134427 -0.18595119 -0.6592643 0.17208669 -1.8044178 -0.4764215 0.9890664 0.08970072 1.7501677 0.71182096 1.1435343 0.049908828 0.18502305 -0.8399854 0.41830355 -0.6354729 0.31311512 0.34231058 -0.55493873 0.30657026 -0.65754277 2.2913096 -0.11378615 -0.7270403 -0.15619557 1.9808533 -0.7772663 -1.7456771 -0.13441764 0.5576319 0.18790738 1.2340297 0.003729639 -0.59628856 0.5367957 0.40163794 -1.0588347 -0.8431293 0.4978508 -0.40243927 0.62614846 1.0059489 1.0826194 2.0312448 -1.1147202 1.2878158 -0.956012 2.07253 -1.6309866 0.40894946 0.32963163 0.23451075 -0.67904496 1.0375478 -1.5325108 1.6599259 -0.9271595 -0.17207862 0.48247346 -1.6117182 0.22086313 0.49957415 1.2994576 0.24855874 0.40720543 0.08005111 0.820038 0.2529781 -0.8543135 -0.69492036 -0.8482071 -1.2621348 -0.6886196 -0.3661788 2.5540695 0.835701 -0.07854541 1.403881 1.2649319 1.44754 0.5297222 0.31005025 0.21387942 -2.866384 -0.30685943 -1.6103486 0.00046568993 2.580006 -0.046159577 -0.66036737 1.5335271 1.478197 0.00021478001 0.41680086 0.46696275 2.0472636 -0.7405269 -0.47654313 -0.9713044 -0.77551913 0.40917453 -0.015415188 -0.5425796 -0.26489896 -0.9952493 2.0346608 0.64168924 -0.4460945 0.091877 0.590275 1.2396724 -1.6001999 1.154811 1.969253 0.44621244 0.10179053 -0.5252917 0.27543804 0.03726679 1.1154128 -0.79152817 0.19915731 -0.27389362 0.28369614 -0.05424829 -0.099196225
常 -0.065639384 1.5719769 -1.0638254 1.8052162 1.0594085 0.029758878 1.4439018 -2.013477 0.7109106 0.33849147 -0.13496572 1.3633629 -0.38230458 -0.40046066 1.2196331 0.43897808 1.4631529 0.321724 -1.0331566 0.40664756 -0.1287618 1.2344596 -1.1004845 0.6305347 -1.1757572 1.3872616 -0.29682755 0.0011693133 -0.23127726 1.5039772 3.0115788 0.77880055 -0.5989821 0.7909217 -1.8590612 0.89733744 -0.92986166 1.2385557 0.61636376 0.685012 1.1392536 0.1519727 0.14427152 -0.050295074 0.9167776 -1.5931531 -0.5324012 0.48275584 0.00848549 0.84104913 0.17642128 1.0377191 0.9829773 0.53795 0.12078931 -1.1188333 0.6408104 -0.61243945 0.061591506 -0.17130992 0.2772382 1.3492683 1.1170923 -0.18683544 0.6560138 0.117510796 -0.3666535 -1.4835218 0.5225199 -1.6807715 0.23076841 0.24510416 0.35809693 0.68522745 -0.2828049 1.5390042 -0.42948633 0.23461519 1.0983907 -1.0567993 -0.3335223 -1.0536599 0.4588916 -0.045273185 -1.0803661 3.0869906 -1.8784415 0.14143753 0.19088215 -1.3201174 0.025244 0.35187498 1.3703369 -0.4872626 0.75938547 -1.4067663 0.6787172 -0.6625596 0.41081256 1.3190879 -0.5363905 -1.0038246 0.24365169 0.35672167 0.52493036 -0.7808366 -0.7202574 1.5650951 1.2752453 -0.59151167 0.8542259 1.8814101 2.544507 0.17506172 1.2061683 1.1134384 -1.2509148 1.3382069 1.099161 -1.9497701 -0.6284177 2.7759209 1.0932022 0.27463812 1.5444769 -2.0298312 -0.5121217 1.0863767
6 -0.13249351 0.84708494 0.2690339 -0.37637788 -0.53481215 0.68797976 0.24088962 0.37496373 -0.7312748 0.7893951 -1.117497 -1.6521345 -0.23475963 -0.6219125 -0.91017836 -1.1776172 0.6617651 -0.39635327 0.101571396 -0.99367267 0.7290925 -0.2628925 -0.85093474 0.45623317 1.0388308 1.0788015 0.1451291 -0.31494397 0.666162 -1.2718735 0.44437575 -0.6010111 2.2682924 -0.17163979 0.8693688 -0.40866196 -0.121084414 -1.2623086 1.0348182 -0.5314319 -0.7281136 -0.36307067 -0.5641125 0.57608056 -1.6682942 0.24365695 1.1701648 -0.21575919 -0.6852993 1.3577379 -0.18083088 0.49529794 -0.7269041 -0.65259016 -0.08429869 -0.7583242 -1.6732882 -0.107328735 -0.028737728 -0.3864802 -1.6846772 -0.3227324 1.0413244 -0.039500013 0.74212146 -0.3852074 -0.1559639 0.31593984 -0.35103554 -0.467547 0.019729465 0.6765478 1.1350852 0.76442385 -0.15675114 -0.39968577 1.756382 -0.2799692 0.54123664 0.9853876 -0.2956805 -1.0412571 -0.21530375 -1.1087132 0.6528903 -0.22921999 1.4612399 0.9915831 0.037810113 0.8553194 0.558884 -0.4752686 -0.57500464 -1.0603513 1.2710817 0.23619711 -0.2885386 -0.28058586 -0.4475825 -0.09409259 -0.44743046 -0.849245 -1.0086085 0.5539084 0.6935217 -0.56536627 -1.2067275 -0.004493299 -0.02886964 -1.5341958 0.44119814 -0.007837623 1.6765386 1.074428 -0.8405745 -0.34945902 -0.54629296 1.1501982 0.38758013 -0.16656107 0.14174025 0.08176136 -0.09090553 0.16095634 -1.9420193 -1.3010595 0.1646688 0.05351993
查 1.0330887 -0.0012809332 0.6712802 -0.1464822 -2.26077 0.26728928 -0.83613235 -0.36556265 1.3797394 -0.4287479 1.1264026 0.40629414 1.4522016 -1.2406036 0.16783503 0.78956723 0.52735543 0.026244257 0.07920873 0.13268119 -0.08313759 1.0411396 0.42649245 0.9860045 -0.7083948 0.718144 0.563107 -0.322211 -0.51879376 -1.6605033 1.9754899 -0.3010789 -0.32612267 1.0209036 -0.68195254 -1.6097164 -0.1044625 0.43615517 -0.21741502 0.11244841 0.455562 -0.09019237 -0.38113722 0.75424165 -0.77947295 -0.50786585 1.1797702 0.6099227 -0.576296 -1.62994 -1.8194356 -0.7292612 -1.085294 -0.88248974 0.9198504 -0.69382185 -1.1898268 0.42349282 0.41502956 -0.07422188 0.34684208 1.432253 -0.79475814 -0.17140542 1.3849798 -0.03462908 0.7616147 0.78345317 -0.055254325 -0.8700139 -0.012356275 0.4463498 -0.25982258 0.4631257 0.05229932 0.5816759 2.454907 -0.84593076 -0.025641639 1.239801 -0.57384497 -0.8837341 1.1420418 -0.09333607 -0.44782504 0.33260673 -1.5494988 0.0789027 0.2639967 -0.20857492 -0.72788393 -0.9500776 0.9221252 0.48588794 2.0399663 0.52261555 -1.8990566 1.3071451 2.2541022 1.9413826 -0.8242894 -1.8445759 0.19950168 -0.65297735 -0.036294226 -1.3051373 -1.8473603 1.3485146 0.8299781 2.1179216 0.2395778 0.8111964 0.7964889 -0.4495208 -0.24953264 0.70930696 0.81809384 0.37248582 0.36038768 -2.2455294 -1.4269409 1.3367964 -0.5934529 -0.38244557 0.6379626 -0.7967372 -0.048053425 -1.4501904
体 -0.53598213 -1.1423161 -0.4442853 0.25982586 0.63945675 -0.8137083 0.81960815 -1.2348803 -1.039313 1.6245427 -1.42493 0.603995 0.6038059 -0.7360286 0.91514874 0.82355225 -0.49554062 -0.19693488 -0.8896817 0.50553364 0.046561927 -0.44375816 -1.8102598 -0.42618442 -1.6002947 0.87698406 -0.051580355 -0.5452702 -0.34782666 0.24534538 0.056621045 2.2815619 1.823015 -1.2782992 0.5002087 -1.1886593 -1.0765778 0.98878765 0.7697617 -0.08113111 -0.7863184 -1.095143 0.37135705 -0.44043115 -0.8179031 -0.83602214 -0.5819357 0.36451983 -0.87904304 0.514253 -0.2897761 0.02698502 -1.411198 0.60877514 -0.29645887 0.35351413 1.6747699 -0.1784951 -0.060940918 0.8619134 0.683381 1.3348793 -1.338126 -0.95188034 -1.857179 0.68300676 -0.061827064 -0.67420244 0.41998503 -1.13458 -1.0203304 1.0405416 0.082053706 1.3303199 -0.083764344 -0.41513494 -0.665205 -0.17074801 0.4565675 -0.34043783 -0.7884303 1.1799971 -0.54201967 -0.07329377 -1.4187915 1.2609047 -0.2802428 -0.2561917 -1.2693305 -0.38992947 0.36355627 -2.0086136 -0.070340686 -0.44627312 0.26747915 -2.0213616 0.4230064 1.03271 -0.07127742 0.19545445 0.5357838 0.83393455 -0.9699857 0.30840686 0.22274806 0.7406884 -2.9403925 -0.15200563 -0.07490507 -1.9039236 -0.83555764 1.2308341 1.0320777 0.86942834 0.19776987 0.6840506 -0.83466536 -1.0239795 1.1146858 1.1007147 -1.1728485 0.58040464 -1.5311009 1.4107852 -0.68306994 -2.2844226 -0.88489157 1.1903744
腹 1.3290259 1.6547729 -0.56876624 0.10053705 -1.6101216 0.29190353 -0.5416621 0.76156616 -1.1126598 -0.057421215 -0.04006463 0.46465874 -0.8580143 -0.7391064 1.030106 -0.3066262 1.2523866 0.3228543 -0.8526412 1.0503842 0.52566236 0.049396966 0.036765378 -1.6047392 -1.907262 3.0545206 -0.38775748 1.3914063 -0.051334746 0.038590237 0.95700973 1.3052723 1.4295977 2.6812897 -0.38815913 -0.096645094 1.1143852 0.020700643 0.68609136 1.1377562 -1.9665906 0.2465045 1.1019492 0.7965232 1.8482397 -0.649458 0.13647482 -0.30244547 2.4012156 0.15855841 -1.0830171 0.7072584 -0.7030822 -0.4854155 0.48555118 0.04298252 -1.7896394 -0.3311214 0.2006348 1.3280991 0.26535216 0.08569047 -0.4008671 -0.040935412 0.27681422 -0.13089304 0.20986776 0.043121964 1.0144683 -0.54371303 1.2256767 -0.6802546 -0.92167145 -0.38624698 2.0007594 1.6591111 0.4641198 0.89384514 0.3060159 0.06852433 -0.26261562 -1.1009957 1.2659097 1.0557654 -1.7559693 0.42843628 -0.109818555 2.0768209 -0.21354687 -0.122639276 -0.49124587 0.4264641 0.3900982 0.8343513 -0.41440144 -0.40052912 -0.5534086 0.5124175 -0.2983788 -1.4702357 0.07303473 -0.65135974 -0.4462937 0.99729276 -1.238174 -2.9872198 -0.12500243 -0.72300744 -0.637464 -0.010613542 -0.30894607 0.87314814 -0.12677003 -0.42821273 0.50891757 1.6090184 0.10588841 -1.3602608 -0.32284358 1.4614546 -0.43048435 1.3333833 1.0913918 -0.8231424 -0.54946935 1.6727142 1.2940536 1.0779002
病 0.5150569 -0.44097927 1.271061 2.4948409 -1.2341547 -0.1399002 -0.5321593 0.8362773 -0.3221817 1.550789 0.835691 0.5397285 1.5167471 -1.1796863 -0.70965683 -0.55653065 0.4478112 -0.47257683 0.5092449 0.4263253 -0.84087265 0.49751058 -0.20476432 0.36796892 0.4565208 -0.53481466 0.27542788 -0.6422536 -1.3748311 -2.0604274 1.5279995 -0.2667561 -0.5185751 0.23249593 0.64203227 0.11787922 -0.3318703 0.2648133 0.5674294 -0.86828566 -0.27292302 0.53420234 0.12713665 -1.4061121 -0.0024931256 -1.610391 -0.8883941 1.6435293 -1.5780071 -0.17752348 0.15194754 -1.655348 0.70296216 2.0519252 1.8073237 1.0937446 -0.99821717 1.4821543 -0.5862026 1.3872875 0.9104065 1.0199723 -0.021707157 2.3078246 -0.30112422 0.7221267 0.25352213 1.4282494 -0.51864606 0.6577386 -1.8596778 -1.0418086 0.025011944 0.6652332 -1.7339634 -2.830584 2.910692 1.7800492 0.52746576 -1.0081147 -0.41085592 0.78368753 -0.18925835 -0.3541706 0.08975265 0.1274107 -1.2917625 -0.58938444 1.2825227 0.8846949 0.23636752 -0.9112239 1.00598 0.7883868 0.08800565 -1.6447043 -0.042233054 1.2193276 -0.3220167 1.1888646 -0.7461745 0.06620715 0.03560782 1.5635953 -0.52937734 -2.2211874 -1.3314545 1.1981992 -0.03358338 -1.1895493 0.056454502 -0.9375778 1.4038883 -0.12838493 0.23962149 1.508327 0.7519794 0.5847076 -0.70836085 -0.15308166 1.5328792 1.863775 -0.18111339 -0.6577656 0.92476773 -1.450305 -0.05885461 0.43941417
疗 -0.20743391 -0.25679883 -1.3927189 2.267368 -1.9817808 -1.0449069 -1.4771893 1.2966009 1.2288872 1.9397212 0.28230372 1.420856 0.9218376 0.8643096 -1.1169771 0.09137736 -1.2375337 -1.8664961 -0.27458018 -0.42092314 -1.2951752 0.70857376 -1.917339 0.34705362 0.4778123 1.1653321 -0.5063097 0.42664775 0.070752114 0.6627452 -0.62828493 0.06981921 0.041815914 0.6104773 -0.14386033 -0.927483 0.4210817 -0.025633063 -0.49080166 -0.835724 0.75192016 0.40637138 -0.11536617 0.97797465 -0.42404574 -0.11717501 -0.40390003 0.36550015 -0.25954422 -0.04041674 -2.0661516 -1.2400811 -1.660308 -1.433773 -0.32042354 0.08104399 -0.21090317 1.1495519 0.21813028 -1.1955295 1.7140388 -1.137511 1.138865 0.63148993 0.88232625 -1.0510178 -0.6757538 0.04358553 -1.1250031 0.31358802 0.039926667 -1.2933671 -0.53259355 -0.5069019 0.069564745 -0.70017964 1.9453763 1.9080095 -0.8444669 0.39238745 -0.26057252 1.5503442 -0.2939706 -0.5962925 0.09062948 0.18983886 1.6710641 -1.667593 -0.24643321 0.9859326 -0.1343569 0.23172233 0.9309545 1.653603 -0.13129959 -0.1200357 1.9292759 -0.89041024 0.10632156 0.53988475 -1.5627578 -1.5092903 -0.7047064 -1.4192449 0.5193783 0.5389772 0.1207826 1.7459755 -0.8036527 -0.575557 0.87521636 0.77030146 0.168536 0.89504516 -0.10453949 1.3695364 0.19853769 -0.6734046 -1.5209755 -1.1228405 -0.46748638 1.2437781 -0.27319518 -0.8710173 -0.5797206 1.7418698 -1.5442253 -1.2582599
诊 0.82247823 1.4995073 1.9954473 1.7424234 -1.9081218 -0.13449478 -0.11037579 -0.26619664 0.07886612 0.9941228 -0.81677455 0.27841306 1.1235288 -0.0763471 0.54498327 -0.9682212 -0.10983495 -0.568149 0.42261794 0.35651377 0.47814408 1.7436656 0.117394865 -0.25908434 0.8190744 0.16483597 1.4952049 -2.0125918 0.51918674 0.10903028 1.7257702 -0.5748326 -0.55067354 -0.099048436 -0.8563062 -0.28722093 1.0345386 1.4543242 0.05457769 -0.997308 -0.5213943 0.01271997 -0.25708136 -0.30476022 -0.50545186 -1.526428 -2.0525744 -2.2749095 -0.4422327 -1.5756736 -3.0586202 -0.20477676 -1.2283452 -2.042924 0.55906564 0.13659048 -1.5749441 0.27215976 0.7751989 0.68210137 2.7945693 0.29330945 -1.2977251 0.38131335 0.7054373 -0.86994725 0.42392886 0.896899 -0.5005384 0.30405164 0.7800892 0.16604768 -1.7572109 0.1683987 -1.29209 -0.55977035 1.5330762 1.915529 1.7932143 -0.48871008 1.8616633 0.6223517 -1.5464659 1.1606402 -1.5036496 0.98061687 -1.1252357 -0.086520575 1.2201577 0.6199171 -1.1040181 -0.36148307 -0.044419475 0.97166973 -0.7445082 0.13780804 -1.9003025 0.0342056 -0.17516568 1.6633242 0.0945854 -0.5276919 0.4191553 -0.49339136 0.06358365 -1.3831389 -0.14690234 2.1205277 1.6380299 0.92740035 1.0411478 0.27820528 1.5004067 0.6816959 1.3442644 0.41434866 0.68167496 0.8012319 0.61269206 -0.23738706 -1.5245409 0.57629645 -1.1656554 -0.53033 -0.8346215 0.78248847 -1.0731889 -1.0022942
部 0.6740922 0.8398704 0.61178166 -0.89691406 0.037443835 -0.38724023 0.70002836 1.4935715 -1.5863193 -1.2750328 -1.808563 0.9439766 0.23550184 0.21639857 0.33427587 -0.42942348 0.8302252 0.60370713 -0.9969461 0.61597246 1.7670102 0.7343242 1.3368922 0.75788903 -1.03183 0.03126903 -0.036720365 -0.09042954 -0.42418516 0.0052272505 1.455741 0.13650851 0.8250881 -0.59627014 0.22012113 -1.0257139 -1.3518568 -0.21040949 -0.19061449 0.7367945 0.06959548 -0.041262962 1.3138013 2.5449169 0.19476111 1.1323166 1.1718633 0.4429795 2.2728074 0.518301 -0.4719195 1.8233327 -0.6332809 -0.8577232 -0.47768584 0.9698649 -0.5101563 -1.1571717 0.31914377 0.58977175 0.4469836 0.077404276 -1.6758367 -0.30798638 -1.0132685 0.28362113 -0.6375598 -1.4391769 0.9257128 -1.5266355 -1.0618716 0.15738072 -0.4466618 0.7630985 0.7889178 -0.12683302 0.119584754 -1.5824165 1.4997782 0.1528053 -0.031390104 -0.75888336 -0.08634699 -0.097743854 -2.0290298 0.85852283 -0.6245845 0.23270276 -0.29077637 -1.9278485 -0.95589584 -0.13507828 -1.6252513 2.4067261 -0.8820071 -0.5564262 -0.032505788 0.030066615 -0.5616346 0.37134698 -0.3502716 0.19708313 0.43042812 -0.15048347 -0.45410097 -1.2603536 -0.34587502 1.9869761 0.6227116 0.96680355 0.026930071 -0.48344266 -0.56041276 -0.2251817 0.72128314 -1.4606258 -0.56283486 -1.8650347 -0.1709541 1.2454695 -1.5529666 -0.036960464 -0.37738383 -0.1360666 0.95772415 0.5388462 1.733302 -0.006303878
（ -0.47870523 0.6924817 0.8560124 -1.3190113 -1.978089 0.23803806 -0.883818 -0.5714618 -0.39357072 -0.51522225 -1.4069995 -0.070191346 0.4231875 -1.0755957 -0.92509466 -2.5810375 0.100226715 0.1579268 0.75075114 0.8135837 0.09216381 -0.060867514 -0.6939941 1.4867921 1.5019082 -1.5035495 0.526409 0.38074765 0.3548138 -0.5602453 0.48106983 0.7825142 1.395617 0.9563199 0.5541431 -1.365785 0.46352476 0.72191983 -0.13178863 -0.6671428 0.76833117 -0.88889736 0.34863725 -0.19657224 -0.81507057 1.3612331 0.1708538 0.8672959 0.56008035 0.82918 -0.21428266 -0.79179245 0.6634125 -0.15867965 -0.7480186 -0.76828545 -1.5521544 0.29839897 0.3812482 -0.51970965 -0.58538103 -1.2098279 1.5418853 0.38184017 0.50198877 -0.43038774 -0.64972025 -0.10716737 -0.1650436 0.10775625 -0.3726771 -0.048137974 -0.27131072 -0.72545785 0.30020493 -0.7647754 0.8386301 -0.56354535 -0.19322677 0.6006847 0.2794114 -1.6419798 0.4986145 -0.9235788 -0.27390802 -0.38195634 0.19781147 -0.23877215 -1.4143264 1.1383613 0.116128504 0.7679109 -0.65857935 -0.6624605 0.42644626 0.9784742 0.40408167 0.42910975 0.57608026 -0.3846786 -0.068528965 1.2498536 -0.13115306 0.58140796 -0.005197354 -0.04147057 -1.4817853 0.09052401 -0.24023029 -0.55551225 -0.044089258 0.22373632 -0.27162996 -0.48847362 -0.15421356 0.58936834 -2.1398416 -0.020781076 0.56081736 -1.098516 -0.9882271 1.372563 -0.15865487 0.9485978 -1.0786399 -1.9151443 1.1713295 0.57515043
） -0.62471277 1.5596966 -0.5090353 0.044265855 -1.4750339 0.5819024 -0.90878916 0.07345942 -1.5716583 -0.2509522 -0.11147089 -1.2480961 0.2188274 -1.4815123 -0.061624892 -0.7440717 0.5506263 -0.10661142 0.49424556 0.44604105 0.17443667 0.19391158 -0.21715748 0.55232716 0.35930413 0.31085575 -0.08677798 0.8907969 0.33147278 -0.5681174 1.7155063 1.1047204 0.7637748 0.45131227 0.9210689 -1.0405405 -0.80826956 -0.7759545 -0.49731874 -0.8233996 -0.12945348 -0.84969264 -0.22552378 0.6661277 -0.46392488 0.37017113 0.34346277 1.0063635 0.7725152 -0.25028566 -1.5542929 0.18881513 -0.54490525 -0.6774375 -1.7077286 -1.0940697 -1.4365746 0.8998794 0.6046156 -0.7253656 -0.44369763 -1.4908499 -0.008945614 -0.1001386 1.0675417 -0.97329885 0.20769234 -0.9459073 0.7025311 0.8483671 -0.52151096 0.20661603 0.08534384 0.3848866 -0.42352876 -1.5780814 2.0095255 -0.6129141 -0.2832198 0.7365303 0.37890258 -1.0782086 1.1031196 -0.4958667 1.109614 -1.1897622 -0.0004046105 -1.2158436 -0.21272792 1.1290284 0.32455406 0.14378157 0.25109088 0.07627218 0.12896495 0.033690415 -0.83290106 0.51795846 0.6031836 -0.90810204 0.10597018 0.23618595 0.2648211 -0.13440847 -0.32738382 -0.6525623 -1.676608 0.44812834 -0.28987777 0.47545552 -0.18663226 1.3184818 0.37479633 -0.41624796 -0.78614634 0.02815841 -1.5753112 0.109963655 0.9500693 -0.09574217 -0.6254232 -0.07830934 0.1289457 1.4194036 -0.8351943 -1.1025419 0.5656845 1.3912956
见 -0.16235104 -0.13733427 -1.8249154 1.1415685 -0.58614933 0.78633726 0.051923957 0.20259956 -1.6534307 -1.5604961 -0.43494323 -0.16838762 -0.3267184 -1.1279058 0.47027093 0.2997279 0.42307013 0.8700967 0.49311298 1.5810001 0.8604697 -0.6240872 1.5679843 0.16388148 -0.5452879 -2.012032 -0.18094006 -0.23106755 -0.7962066 -0.57250005 -0.24031958 1.3059328 1.4464543 1.489841 -0.51716053 -0.8638855 0.24709582 1.8719802 -0.46087185 -1.9019328 -2.3394344 -0.09689273 0.9744462 1.4189003 0.70431453 -1.23473 1.109622 -0.17235482 -0.19740334 0.45537913 0.26963308 -0.7586845 -0.9183997 0.55860573 -1.4008628 -2.10175 -0.9774857 1.9427913 0.10255006 -0.8335867 -0.3130877 -0.5090518 0.39789698 -0.5877606 -0.39417127 0.1006249 -1.4125439 -0.67963845 0.46616015 -1.042342 -0.13971816 0.17295589 -1.0083852 0.80454177 1.3978316 -0.19064794 -1.8899517 -1.2948718 0.6989381 -0.6618878 -0.084800415 -0.6927683 -0.8362039 -0.045522653 -0.20338292 0.46849087 -2.4696727 -0.78084147 -0.3995807 0.81373125 -1.7069104 -0.8821288 -0.1073811 -0.7296604 -0.005947211 -0.2737388 -0.679176 1.229165 -1.6711568 0.92652583 2.4945464 0.875991 0.08966719 0.36721495 -0.89319426 -0.06905041 -1.0254682 1.5109457 0.4957804 0.6892036 0.87661254 -0.021690695 2.288582 -0.32435185 0.56364053 2.4490807 -1.7811198 0.94162494 1.8249414 0.32273617 -1.1114513 0.31042054 0.67288715 1.3617541 1.8459347 0.16869807 0.03407082 -0.68886
于 -2.0085344 1.1686839 -0.8371655 1.1654378 -0.8384329 -0.3871247 0.16980302 -0.13603693 0.4693037 -0.9736372 -0.27694726 -0.5412838 -0.9137372 -1.8402175 -1.4437128 -0.4015623 0.5865182 -0.52791125 -0.28951013 0.23303439 -1.6177852 0.9864805 -0.2219989 1.3866447 1.7449917 -0.015147326 0.16429329 -1.0797623 -0.5820189 0.6030394 -0.30916837 -1.8709736 2.2282553 -0.24446976 0.88758415 0.39026186 1.0836208 -0.8095697 0.67452383 0.033007476 -0.070815876 0.5551319 0.619709 -1.2539485 -0.5494379 0.9347017 0.69965065 -0.23165682 -1.2320433 0.16159399 -1.3374037 -0.60698193 -1.1013459 -0.07223435 -0.16981721 0.62564486 -1.616297 -0.2724942 0.3184377 0.07481427 -1.3998427 0.7602855 1.0942657 -0.4162058 0.5928055 -0.12978747 -0.4858655 1.5646894 0.7534895 -0.6990614 0.14709345 1.7981689 -1.396942 -0.89226496 1.1565986 -0.56733257 0.8707627 0.877088 0.09474502 -0.5179531 0.081474416 0.8646599 0.47477764 -0.2275012 -1.1825848 -0.7938016 -0.5007684 -0.5891199 -0.077997774 -0.24173522 -0.7535283 -1.2804483 -0.9627798 -1.6352615 0.5623262 0.5815273 -0.39563933 -0.388513 -2.3067145 -0.43809226 -0.23113267 -2.167554 -1.2730287 0.43207225 -0.52284425 -1.1088058 -0.86883914 0.8651464 -0.063833505 -0.83498704 0.19887383 0.41130942 0.44898024 2.1353328 0.44414788 0.4839778 0.61860025 1.3295736 -0.22056553 0.62559295 -0.17397413 0.10385232 -0.8410025 -0.18245463 -1.074377 -0.6302434 0.17288172 -0.95149064
入 -0.8409247 -0.7142983 -0.3725008 0.8155218 -0.8279895 -1.1444632 0.5258283 0.44172582 0.40952286 -0.03569375 -0.28304583 -0.26940757 1.2678167 -1.5236614 -0.49163896 -0.09305452 -0.8127111 0.30495155 -0.97626084 -0.56071705 -0.59567535 -0.2112228 -0.80141455 0.86876327 1.072558 -0.1987363 -0.06961747 -0.21604277 -1.7487289 0.45642483 0.6542214 0.0143320095 0.8501723 0.045147218 -1.1276492 0.0070816 0.7800495 0.61098266 0.64986336 0.3705207 -1.3469632 -0.40726045 -0.4434924 0.5683683 -1.106362 1.5661187 -0.7057069 0.09086153 -1.0064253 -0.5155248 -1.3986447 -0.11637631 -1.7270228 -0.2005165 -0.5346648 -0.013988431 -0.96944416 -0.011924301 1.2203032 -1.0806957 -0.5442669 -0.9391571 -0.75031173 0.70993257 1.4103479 -0.0010129147 0.33358103 0.736978 -0.8532967 -0.76137346 -0.74734265 0.81031096 -1.2073219 -0.31420103 -0.3852156 -0.7698879 0.13495636 1.2046152 1.5544012 1.2748808 -0.5019075 1.586025 -0.5372657 0.4365603 -0.1559254 -1.6482602 0.15951739 -1.2019502 0.06552783 0.285062 -1.0953033 -1.8148798 1.4208091 -0.6204583 0.05939704 0.8963625 -1.2420937 0.5030272 -0.0956478 -0.50848293 -1.629931 -1.6391274 -0.9151379 0.6800974 1.852693 0.0060331197 -1.4328891 -0.88242674 -0.5258301 -1.3502731 0.15362519 0.5601028 1.9521298 -0.45461845 0.03513519 0.7789551 0.91477746 -0.45847642 0.49286184 -0.111590214 0.36614433 1.554414 -1.8303492 -1.9454844 -1.9121687 0.4778746 -1.1379204 -0.6616318
双 -0.30794376 -0.42021176 0.44464532 -0.10034732 0.94931704 1.3651171 0.2882117 0.3072941 -1.3274158 1.2151647 0.007074033 -0.7334425 0.73539066 0.809156 3.03515 -0.7812861 1.3093966 1.429492 0.3539342 -0.84063405 -0.3339921 -0.5741682 -0.68201417 -0.47264588 -1.048202 1.177718 -0.8475088 0.3308143 -0.4450727 0.0078257155 0.0716758 -0.22001058 -0.98748076 -1.050658 -1.3798324 0.9843689 0.18237181 0.71435636 0.74115103 1.5687869 -0.45456204 -0.6081909 0.24894702 0.85632676 0.99403775 0.24047999 -1.9964899 0.6916082 0.15449494 1.0192354 0.17687476 -0.34613222 1.1553321 -1.7775817 1.4145262 -1.4777514 -0.18540944 -1.0542713 -1.2794899 0.5745128 -0.9452395 0.25159293 -3.0291862 -0.516913 -0.682637 0.77469945 0.39580876 -0.2117837 0.10140574 -1.5170021 1.6874113 1.0491824 1.6258979 2.307268 -0.16143738 1.3678733 -0.6153649 -1.2876875 0.7040649 2.1993682 -0.16248979 1.4254845 0.48154667 1.3318559 0.9729422 0.4067785 -1.324128 1.4688101 -0.3608949 -0.67219573 1.2532701 0.71837133 0.8330858 -0.52350485 1.1312989 0.18531093 0.28798488 -0.08713341 -1.4140081 -0.13078935 0.8993582 0.5231733 0.19125445 -0.99529964 1.7467989 0.17121868 -1.6894116 -0.15831777 -0.5653237 0.94152606 -1.6076058 0.733561 0.0046367855 0.8109897 -1.2236265 0.86998457 -0.8742537 -1.4353172 0.18605064 2.0181143 0.50963235 0.14651588 0.23741564 0.7927514 0.66322213 0.14806822 1.5458707 -0.06139145
结 0.47937942 0.68450415 0.987008 -0.9190848 -1.3277032 -0.3660538 -0.54031396 -1.2970096 -1.7586795 -0.30175647 0.8302529 -0.30798507 0.051683307 -1.3888209 1.5930223 -2.4289188 -0.13915645 -0.13641804 -0.12235625 1.6828771 0.29021066 0.33917066 -0.988565 0.8416821 0.14730513 0.13147613 0.06982373 0.875249 -1.502218 0.058211688 1.8390064 -0.12186586 2.0494606 1.6414129 1.382461 0.07270607 1.1251704 1.272039 0.48849976 -0.27716792 -0.64201164 0.4291592 -0.0713168 0.1068274 -0.75694776 -0.80600476 -0.24068855 -0.13146406 -0.25482744 -0.86981714 0.2709399 -1.8110837 -0.6304491 0.22783466 0.053202588 -0.27369994 -1.0747426 -0.3137787 -1.3531305 -1.1410418 0.8063296 -1.7172995 0.2712476 -0.9666228 -0.7973985 0.87835157 0.51437634 0.06927961 0.71826535 0.044982642 -1.5938745 1.1736623 0.5135766 0.13986093 -1.1053252 -1.6869664 0.31623608 -0.16356234 0.3956916 -0.08551881 1.0458899 -0.06719389 -0.024306368 0.31488246 -0.39157847 -1.0803176 -1.3947413 -0.69096404 -0.3893918 1.6451045 -0.3673896 -0.8774081 -0.2502508 0.3210798 0.04924462 0.9956289 -0.47055358 0.82282305 0.34463167 1.1990427 1.4889896 0.876208 -2.1846454 0.065472655 -0.91375744 -0.7555146 -1.5208544 1.5114247 0.4228938 0.33726385 0.3477903 3.2448657 -0.9337576 -0.6479261 1.4790828 2.2996948 0.03129848 1.4594351 -0.28495732 -0.91990584 -1.4864445 -0.116834015 0.59129745 0.20797043 1.1357493 -0.2703554 0.49209112 1.501288
血 -0.31167343 0.12348599 -0.54770386 0.6268972 -0.06139418 -1.6146084 0.36395434 0.32143492 0.022829968 0.92751664 -0.95473385 -0.6421403 -0.66627073 0.35827774 0.5027258 0.6118974 -0.38719738 -2.2197783 -0.083525054 1.6015279 0.4163454 -0.05112741 -1.0157701 -1.1986064 -0.5865379 -1.0229913 -0.82929844 -0.931221 0.40591794 -0.46364003 0.5072784 0.21165374 -0.51050615 -1.1910893 1.3086509 1.6764904 -1.2417657 -1.3944949 1.5415896 -0.5919987 1.041424 -0.8489834 -0.26533547 0.21405172 0.87184876 -0.778014 0.34646192 -0.612929 -0.44405684 -0.21643446 1.2170545 -0.19078162 0.27930698 -2.9966033 -1.9321747 0.28627262 0.88584507 -2.2681887 -0.62868166 0.2765439 0.7427839 0.8407171 0.6726833 -1.7548219 0.79911274 -1.6556487 0.016851274 -1.1532583 0.9712472 -0.6227385 -0.26889172 -0.023101063 1.444508 1.5320773 -0.833995 -0.38298294 -0.08647337 0.5344275 -0.43951693 -0.10753206 -0.68850803 -0.78802174 -1.2959352 -0.6877621 -0.38303375 -0.37945992 0.9054757 0.06920905 0.69216365 -1.4534032 0.6091874 -0.8562462 0.48373342 -0.6704061 -0.2889927 -0.9906621 1.421885 -1.5874614 0.37718728 -0.69131875 0.25530392 -0.40164727 -0.09961986 1.181806 -1.2011586 -1.4111558 -1.1467108 -0.6250779 -0.5712299 -0.8362506 -0.9151633 -0.3857427 -0.6445061 0.036521327 1.0970109 1.0968292 1.729205 -0.19754341 -1.1278524 0.99870425 0.49834892 -0.3683069 -0.029088855 0.5651464 1.8740034 -0.9662322 -0.5898181 -0.998815
化 -0.12445386 -0.8266699 -0.22764438 0.45579848 -0.3918777 0.5260025 -1.4364253 0.40956596 0.66456085 1.3607165 1.0452509 -0.26156273 0.69499254 -0.8403322 0.6386863 0.25001705 -1.4689486 0.6266542 1.2646766 -1.3716794 -0.79399395 -0.73128694 2.1717563 1.761411 -1.2703047 -0.80094916 0.91248006 0.10475309 0.19028227 -1.0866005 -0.80055034 0.7058381 0.054860514 0.08464152 -1.1340333 2.3115058 0.031786833 1.8183621 -0.36756197 -1.0169687 -0.3158808 -1.7063763 0.5801943 0.44276947 -1.2225184 0.6891458 -0.19741821 0.48756427 1.1887987 -0.65926707 0.46488443 -0.8132372 -0.59144604 1.1206903 -1.2959495 0.073737256 -1.541794 -0.5708265 1.351491 1.3020068 1.6343377 0.619394 0.8420136 2.004612 -0.20339361 -0.3531708 -1.29695 0.600675 -0.9552624 0.30742255 -0.055025317 -0.399166 -0.5907199 -1.7398808 -1.0518944 -0.76267207 0.57632524 -0.60135657 0.15416136 0.7997603 -0.43450952 -0.5619588 0.7663034 -1.8970059 -0.44033113 -1.7290481 0.046172574 1.23629 -0.8962635 2.5026915 -0.6051563 0.6058512 -0.708602 0.20338364 -0.5702525 0.32990262 -0.335658 -0.25518155 0.4105284 -2.6979516 -0.6429492 0.31026116 -0.35324502 -0.5054638 1.0596234 0.9327403 -0.21565558 1.2488965 0.5120571 -1.3336612 -0.8948285 -0.6456685 1.170362 0.8914858 1.5543494 0.10187467 -0.4657166 0.34402844 -0.3485109 -0.64632744 0.72623116 0.20938976 0.18507609 -0.23401709 -0.56645447 0.13536091 0.07687523 0.033129025
癌 1.0646431 0.43597227 -0.080474935 0.7419768 -1.2621342 0.34799135 -0.5639215 -1.1022296 -0.7680704 1.7848859 2.0898821 0.61499727 0.03059403 -1.4061985 -0.97281986 -1.2230903 -0.33575416 -1.008289 0.56177276 1.120359 0.37652752 -0.42657828 -1.6436778 0.78773284 0.09165076 -1.2438169 1.1942979 0.18923256 -0.058112264 -1.022919 2.2097623 0.39290345 0.3134942 -0.4631375 0.69806904 0.86593574 0.78670263 -0.3310868 -1.320409 -1.9750811 -0.6134165 -1.0249759 0.78208804 0.41994476 -0.5635232 1.2188164 -0.44655082 -0.0017274438 -0.009437578 -0.10467922 -1.2353811 -0.6473282 -0.99581194 -0.866729 -1.9543138 1.4010847 -2.3193805 1.6296858 -0.4981051 -1.64799 1.5023968 -2.3673182 0.875963 0.23403256 1.0892633 -0.93857825 -0.96128273 -1.7747234 1.4383162 1.2256651 -0.7404938 0.04169631 -1.238983 -0.17620382 -1.7526175 -1.3152919 0.24579954 -0.25627142 1.8381342 -1.0265062 0.7127629 0.09922584 -1.6106044 0.069066346 0.42363307 0.21048492 -0.008752193 -2.2343225 0.068190426 4.092814 0.31705356 -1.7947819 -1.0229234 0.6279115 -1.0189183 0.56390077 -0.40377975 0.7791939 0.24119115 0.56302255 1.1023847 0.0571066 -0.03300034 -1.0119464 0.24253263 -1.9088441 -0.8748056 1.248102 0.24167147 -0.6012873 1.2095563 2.20531 1.2888067 0.8149605 1.8868092 0.24658695 -0.78193885 0.55577797 0.4639723 2.4932709 0.18913597 0.02289642 0.24884643 0.5152761 0.35632682 -0.7280436 0.44850242 0.58210975
可 1.2837567 0.12003129 0.030917944 -0.9003975 0.1663859 -0.7447422 0.8660083 -0.7400479 -0.186056 0.28782812 -0.914597 0.7197362 -0.96483654 -0.19322143 0.9609476 1.0161128 0.7725528 -0.13403644 -1.9416022 1.8932488 -0.76872605 -0.44964492 -0.8016988 -0.39162698 -1.3652763 2.3290803 -0.42891303 1.5050681 1.1970042 -0.5620249 1.3768448 0.80483025 -0.20079012 -0.34261382 1.5692694 -0.02601611 0.35876155 0.10153711 -0.35083008 0.46452203 2.2074087 0.28695104 0.64532995 -0.6020131 1.9906894 0.046180338 0.9071671 -0.2769105 -0.21391036 -0.15208124 0.043023456 -0.15231603 0.36678222 0.021265794 0.55710894 -0.89275295 -0.5613654 -0.6578524 0.8001379 -1.4758669 0.53013295 0.5954724 -0.16418716 -0.40178674 -0.57955116 0.00958569 1.3697162 -0.099142976 1.2706403 -0.01533153 -0.142571 -0.07786507 0.086799644 -0.06633987 0.13737792 0.92231566 -0.26046088 -0.6744796 0.61745006 -0.5586718 1.1059315 -1.6687003 0.37845558 0.6361185 0.73763597 0.15492618 -1.8615667 0.5816034 0.29390842 0.11195663 -0.28369448 0.10013056 0.4010499 1.4312918 -0.8593108 -0.6240751 -0.5836036 -0.067389496 0.25784233 1.0458218 0.7161598 -1.4317176 0.14899643 -0.26733196 -0.47887185 -0.29288658 0.18094109 -0.07049416 0.73518014 -0.8384893 1.133134 0.8561555 0.992735 -0.12180934 0.001347235 0.31230876 -0.1406405 -0.80064917 -0.78029 1.3254619 -0.10454536 -0.3246492 1.1681472 0.4927896 0.1502659 -0.19410957 0.83900446 0.54003215
心 -0.8376875 1.736637 2.3391 0.7005895 -1.0645417 -0.51305413 0.107723475 -0.507964 -0.41536826 0.5132463 -1.2337109 -1.3623182 0.51734906 -1.8571872 2.2493558 -1.2139913 0.31544328 0.58158904 1.3546189 0.59010124 0.64482766 -1.6532928 -0.024196312 1.1402698 0.7666567 1.3875551 -1.0186682 -0.65073735 -0.62013173 -0.013154849 0.67170995 2.2978508 1.2451861 -0.25332654 0.00059457874 -0.99205875 0.32433733 -0.89079237 0.9495354 1.6298621 -1.2203628 -0.19042386 -0.88141805 0.39915884 -0.15062103 -0.40168434 -0.5277809 0.2602636 1.6394998 -0.512896 -0.7501244 -0.13333279 -0.39245313 -0.5820644 2.0013702 0.7888787 0.5911455 -0.8301394 0.37592307 2.5174701 -0.939932 0.5911581 -0.6884127 0.7967963 0.7514945 -0.6634277 -1.3059585 1.1868236 1.7430863 -0.28141522 0.4292469 0.5410137 -1.9492382 1.9828541 1.2656028 2.0541208 0.25907516 -0.15204757 -0.520232 1.3436317 -0.8782977 0.36474836 0.90702397 0.7023952 0.13300225 2.141887 -0.9236244 1.3475326 -1.5432193 -0.24685091 0.033132322 0.059508715 0.9189346 -0.7753635 -0.5574461 -2.1416414 0.28681305 -0.13827111 -0.2479044 -0.95902944 -1.2801673 -1.6239672 1.1846199 1.5361711 -0.76692367 -0.83522165 -1.0541394 0.09453941 -0.25950164 -0.48379228 -1.7087526 0.47467434 0.6170045 -0.06000673 -1.36759 0.52317786 0.79216695 -0.6791471 1.0343676 -0.04693566 1.0673438 0.66747797 1.0064839 0.9090918 0.44243252 0.11289559 1.129633 -0.4042247
治 0.802811 -1.3951072 -0.28014594 1.9082135 -0.8105221 -0.24566182 -0.9169284 -0.019772636 0.7665914 0.017882124 1.2996771 -0.120587334 0.90368074 0.61626726 0.90838206 0.46576673 -1.1835678 0.38244227 1.74047 -2.1204169 -1.030035 1.2755705 1.3483121 0.60534954 -1.0875747 -0.72562706 -0.4724116 1.0086713 -1.0478965 0.34765443 1.270074 -0.50761586 -0.33424944 -0.22551674 -1.0854232 2.335497 -0.85302436 1.2923925 -0.48613608 -0.85640407 -0.092443965 0.44965515 1.2804949 0.20804036 -1.2906814 -0.27227545 -1.7124243 0.33789834 1.2963053 0.5183966 -1.0334861 0.14625445 -0.61770314 1.4664276 -0.6660811 -0.5917368 -1.7184913 0.24404317 -0.56084937 1.5063475 2.1680012 0.999271 0.73871535 1.2771653 0.45293978 -0.97317725 0.46160284 1.3460901 -0.13757148 -0.046053175 -0.688071 -0.15225624 -2.5944245 -1.8966844 -0.29118347 -2.3050547 1.0709189 -0.6850165 0.2860763 0.9089283 -0.47911897 0.12528154 0.7803724 -1.3861277 -0.14323676 -1.4599493 0.2996999 -0.7634197 0.45173272 1.1703134 -0.567571 -0.2723969 -1.7010646 -0.053775404 0.15783553 0.43731603 -0.49268904 -1.930606 0.50005794 -0.7176148 -1.6829313 -0.25963953 0.43644905 -0.017410733 0.2185706 -0.8251556 -0.15757938 0.71275294 0.09234976 -0.73726606 -1.4490156 -0.92291117 0.6307204 -0.58471805 2.1192136 1.1747068 0.4620379 -0.35187602 -0.9560555 -0.6060985 -0.2967884 0.22986823 -0.0063141813 -0.13769901 -0.85562897 1.0179466 -1.0038427 -0.5942163
次 0.07508742 0.49369645 1.0789852 -0.8730738 -1.4013749 -0.7003422 -1.2805275 0.015528089 -0.29930523 0.15996616 -1.4282976 -0.053239677 -0.9193961 -0.37081477 -0.68218374 -0.7862418 -0.6951816 -1.1575786 0.43264797 -0.7614373 0.7755277 0.26596627 0.49446085 1.4990722 0.6568966 1.4546274 1.2856947 -0.7791452 0.12985606 -1.5138928 1.5293301 -0.20607668 0.6044455 -1.2574981 0.07103918 -0.9231115 0.22429015 -0.45470724 0.30839187 1.2308131 -0.91586125 0.38326773 -0.6819867 -1.201863 -0.9131154 0.53246313 1.7652186 0.049661636 0.7892665 1.0863066 0.3403534 -1.2733784 -0.10558518 -1.7713301 -1.5337002 -0.5545243 0.5335963 -0.7380233 1.7185938 -0.35113692 1.2236338 -0.8826882 -0.0027591921 -1.6385075 2.151491 -1.3657523 -1.1864237 1.6049666 -0.08908215 0.45621306 -1.2747538 -1.4599203 1.7537977 -0.2715713 -0.19465385 -0.21804158 0.18218997 1.2013102 -0.7490577 -0.3451292 -2.3096156 -1.6157398 -0.14521833 -0.97139263 -1.1214058 1.1081325 -1.0330299 0.48161843 -0.63933444 0.3774609 -0.9196521 0.7838642 -0.68334013 -0.50881773 -1.1259602 0.49565637 -0.20261161 -2.4031045 -1.2311361 -0.89481145 -2.0787387 -2.9130576 -1.1228793 0.96830887 -0.022522764 -0.040976193 -0.3314059 -0.46479452 0.50489324 -3.1632957 0.27954304 -0.048044894 1.3456862 2.1644502 1.356043 0.54491776 -0.5473593 0.45236486 -1.0229586 -0.78866833 0.7576717 0.9745933 0.20940468 -0.9656752 -1.0256027 -0.4318502 -0.23321445 -1.3524973
分 0.9763963 2.7875383 0.13608712 0.7062688 -1.9924349 0.42738694 0.25470844 0.70469975 -1.3394113 2.675888 -0.14527689 0.5549194 0.33829188 -1.9223167 0.38898724 -1.7534357 0.6485831 -0.16792107 2.0306044 0.3372893 -0.1075136 -1.6122637 -0.7528399 0.876665 0.25589344 0.44748747 1.0588146 -0.72157156 1.1607913 -1.7411329 0.8146998 0.92784625 0.685944 0.060602833 0.97009265 0.44177938 0.3329483 0.54864144 1.0055958 -0.021381779 -1.0495402 -1.8726854 -1.6686002 1.443326 0.9543388 -0.36800215 1.6549323 -0.20033614 0.45669076 -0.060584456 0.7229032 -1.9946386 -1.0300952 -1.0528063 -0.70229113 -1.0147935 -0.40735582 -0.17906865 1.876178 -0.1400931 0.74967974 -3.1030784 0.9925696 -1.2220247 2.033311 -0.41113123 -0.8894627 0.047475014 -0.01921688 1.54639 -1.1323287 -1.8967471 1.7016461 0.79591995 0.71467596 -0.38757557 1.5399687 0.73623323 -0.98916286 0.08168639 -0.9024712 -1.7077152 -0.27479532 -0.06942213 0.3839609 -0.19973186 -0.030409258 -0.20051514 -0.5738198 1.2874031 0.06782606 0.19989923 1.9514755 -0.9801181 -0.93065315 -1.128965 0.8393724 0.51913923 -0.67432576 -0.91807485 -0.47358462 -1.2450641 -0.3450399 0.13720015 -0.47580948 0.50016844 -1.9032 0.0365934 -0.18521562 0.15922867 0.8170208 1.2716205 -0.76809007 0.5025614 -0.4481767 1.9190979 -1.2447056 1.2599267 1.0100192 -1.4352696 0.46246102 0.053829852 -0.088048354 0.10557127 0.7787615 0.50316316 0.72904825 -0.7690433
下 0.5221551 1.8700716 0.25421655 0.46155742 -0.48534074 0.5037906 0.80279464 -0.46656644 -0.9710698 -0.06641472 1.1512195 1.4617674 -0.23568238 0.93715924 -0.3234813 0.67038625 -1.0727268 0.8478621 -0.630624 0.2528589 0.35496354 0.68356425 -0.9107801 -0.5093716 -1.2325156 1.7146814 -1.4978299 -0.44932088 0.4338158 -0.062426824 -0.6322442 1.5758641 0.56984526 1.2047821 -0.0029367453 -1.5110986 0.94986296 0.04232118 -0.4495513 1.0580016 0.71755224 -1.0495094 0.25295606 0.26313215 -0.5358476 -1.2536426 0.7946467 -1.0520103 0.3367357 0.029391577 -1.1836193 2.276079 -0.074753605 1.0004308 -0.87920547 -0.30668724 -2.0199535 -0.7547479 -1.6742984 1.6164734 1.1441977 -1.2005746 -0.53726697 -0.9625664 -0.6855351 -0.08526174 0.817797 -1.0212955 -0.2454068 -0.19932094 -1.3897474 0.18421851 -0.69303256 -0.53595364 0.96602976 0.52887243 0.60843456 -0.49558893 -0.16749448 -1.2137442 1.0614476 0.5938578 0.1951015 2.2233186 -2.2608197 0.9513523 0.1697791 0.16473332 1.4158959 0.19183822 -0.5780103 0.09068417 -0.97114766 0.99578816 -0.8598901 0.05968027 -1.2340152 1.4446911 -1.025108 0.64162797 0.90293366 0.50557613 -0.662864 -2.0329053 0.4442497 -1.1878191 -0.63071483 1.0903966 -0.6785234 0.6054313 0.20975633 0.7838071 -0.9519093 1.2561088 0.30914876 -0.6785909 -0.81434476 -0.3418926 0.6232058 0.4981449 -0.83166766 -0.025465723 0.18929875 0.058109038 -0.44037116 0.5746607 1.0312946 -0.0077816276
肠 1.8778696 -0.06802761 -0.18084805 0.11418208 -0.95785624 -0.26328486 -0.3818972 -1.9189339 0.7914096 0.91329944 1.5029821 1.2894982 0.4096785 0.3750508 1.3676474 -1.4628272 0.71498024 0.5825876 -0.30612603 -0.2571453 1.0032506 1.0146884 0.339132 0.4021935 -0.13205485 0.34289268 -0.33886153 0.470201 1.0400568 -0.8693167 2.6454859 0.16021888 -0.67695683 1.5607972 0.83504677 0.69406456 -0.049533207 -0.8989765 0.86847264 -0.8950437 1.379123 -1.5411232 1.9804705 0.6323443 -0.91022646 0.6959955 -0.9041269 0.19193995 0.18721282 -0.44583642 -2.9564147 0.7465967 -0.5598816 0.658478 0.5832424 0.4843669 -1.5575556 0.3959451 -0.81849843 0.042846438 0.082569875 -1.0172544 1.9810969 -0.7663114 1.1111734 -1.3423609 0.5028031 -1.9491009 0.91227734 0.688302 -1.5970329 0.09674189 -1.0351526 -1.1798806 0.62367266 0.32787174 0.75137043 -0.11694688 0.24592675 -1.6472434 0.9468988 0.0008951876 1.517974 0.8499555 -0.15834627 0.22896047 -0.9796013 -2.3509932 1.2441322 1.5088996 0.83014345 -1.0786662 -0.62286943 -0.87597215 -0.8633166 1.048958 -1.1229975 0.7469598 -0.73527807 -0.30669528 1.7248471 -0.42080745 0.16659945 -1.4493046 -0.040671058 -1.7645501 -0.6483945 0.050123848 0.7981549 -0.059233755 0.20867644 1.0944316 -0.12481883 0.6678659 1.3333361 2.114924 -1.693634 0.9138025 0.2919133 1.7331269 -0.33565238 -0.6116856 -0.4840177 1.9534369 -0.588057 -0.79966885 2.1413321 -0.72245437
正 -1.3582056 0.28251135 1.241452 0.29395124 -0.9831614 1.111451 0.55168307 -1.6887922 -0.038796593 -0.6975066 -1.2214941 0.46982455 -1.1556398 1.1096995 3.0094733 0.014088727 0.6391222 1.2374896 -1.5162517 1.5834078 -0.57566774 0.74819803 -0.58508587 0.007442803 -2.033076 0.3602617 -1.181897 0.8642454 0.3077691 0.37883484 1.9172311 -0.64773977 0.47793847 -0.3830357 -0.71409994 0.28527752 -0.5966034 -0.3029105 0.39677876 1.2295822 0.41827166 0.2711789 -0.31098944 -2.0088627 1.4952505 -1.7767516 -1.7566502 0.58672905 -1.3504515 0.40929067 -1.4483353 -1.0776353 0.34358934 -2.7537222 -0.69311315 -0.8806681 -0.14253211 -0.5117033 -1.1517353 -1.3499045 0.22920077 0.31906107 -1.3880851 1.1332402 -0.6404796 0.62022054 0.9444097 -0.3150839 1.0530869 0.22847335 -0.9744319 1.0515174 0.1385786 1.529424 -0.24348189 -0.45608577 -0.44985062 -1.4853148 -0.68583554 1.960419 -1.1171223 1.1465927 0.19619589 0.7658762 0.37007383 2.3115003 -1.0423448 -0.4518859 -0.5384027 -1.1704367 0.72855395 0.022750178 0.6486989 0.0064674765 -1.3925734 -0.47804505 -0.5575648 -0.5869715 -1.2014823 1.3130302 0.734738 0.93199956 -1.3947593 0.46796572 -0.5570207 -0.2641766 -0.6564542 -0.52803403 0.2285907 -1.312561 -0.57936877 -0.83594865 -0.2536033 1.4250842 0.7503577 1.7316037 0.048436288 -0.055840198 -1.9739233 0.36538193 0.29821604 -0.0960584 0.45362014 1.8694948 0.95661557 0.17152411 -0.16239098 -0.45924184
大 -1.2266841 0.85919136 0.27077457 0.14555398 1.3276743 -0.12624201 1.3782847 -1.0720093 1.1786911 0.55782074 -0.7835311 -0.3697765 -0.7288729 -0.6853492 0.8384406 0.48070532 1.2412529 0.5623416 -0.5897141 1.5028155 -0.5488567 0.093587205 -0.998787 0.47195888 -0.83160204 0.72009224 -0.9208311 -0.052587908 0.92866075 1.1643747 1.2458159 -0.13367055 0.7319501 -0.46498913 0.9445624 0.29634526 -0.32813323 0.057155162 0.8397378 0.35323477 0.23350365 -1.7911055 1.0122598 -0.2051301 1.0600795 0.0602852 0.77188087 -1.2408644 -0.37920853 0.23571695 0.8345155 0.27451536 -0.37208802 -1.3949978 -0.09104359 -0.72962934 0.3025271 -0.8729258 0.5130247 -1.2353393 -1.3776579 -1.1233798 0.10979534 0.64328593 -0.21601908 0.30028537 -0.40324056 -1.1526431 -0.031494055 0.5773724 -0.9042908 0.86607933 -0.2373781 2.01822 0.7567646 -0.64399713 0.37725937 -2.1557577 -0.23335443 -1.3047734 -1.0695899 -1.6220841 0.6237128 0.006157531 1.201672 0.52414834 -0.81747526 -0.99105525 0.7826158 -0.4026893 -0.42142114 -0.5441472 0.73157394 -0.003636711 -0.55409217 0.78342116 0.46370283 -0.7174255 0.12812594 1.3581971 1.9627645 -0.37265724 0.1192381 -0.595527 -1.6346087 0.928969 -1.7725848 0.96960574 0.95905083 1.1240382 -0.3048814 -0.73010725 0.4065692 0.52849597 -0.43675715 1.9773744 0.5658448 0.28162545 0.59229684 0.87391806 -1.6664546 -0.46350843 1.323849 1.0350788 1.2087094 -0.9814414 1.2724932 0.097347274
发 -0.24811654 -1.276675 0.0550795 1.1631297 2.8134532 -0.033729512 0.6224332 -1.5191114 -0.30580613 -1.5827383 -1.3962467 -0.5656487 -1.4373701 -1.9887028 0.99965334 0.71113986 0.42075887 -0.47647217 -1.3785403 0.31898418 -0.21302795 -1.1197867 -1.6071564 -1.3546772 -1.0495528 1.9497648 0.4170322 0.16275129 0.3866235 -0.18831995 0.21721193 -0.43324068 -0.31742346 -0.45176548 -1.3029143 -1.7048142 -0.72573245 -1.001829 1.1283478 1.3931125 -0.82037455 0.48017636 0.35600427 0.013378556 -0.20556399 -1.407112 -0.06604437 -0.38933042 0.79051197 -1.742311 -0.45557153 1.2690042 -2.3990245 -0.3044011 0.6972357 1.4448168 -0.61358666 -0.55518836 0.54757035 1.6801752 -1.0414373 2.4002004 -0.7636772 -0.8995412 0.65949076 0.4024444 1.5520238 0.17369175 0.6622944 0.07250565 0.03108299 0.17917107 -0.26307037 0.12519112 2.7032802 0.81066257 0.014846034 -1.2130518 1.8884295 -0.782559 -0.7971045 -0.43408564 1.4115685 0.4051446 1.7850661 0.25680363 -0.90832365 -0.98584914 0.28345954 0.6231335 0.66158664 1.1260307 0.8220892 1.2784548 0.07631446 1.0510529 -2.3774257 -0.11032212 1.6641868 -0.70825046 -1.8359973 -1.6632255 0.019408934 -0.3223894 0.08728581 0.6155605 -0.7659045 -0.58090246 0.8535179 0.07365232 0.48209646 1.3328338 -1.3662931 0.42178273 0.41960067 1.1818663 -0.21472412 -0.28636125 0.51272905 -0.17998603 -1.0318023 -0.52234983 0.5117521 -1.9067646 -0.6460128 2.2433121 1.5252507 -1.5855646
8 0.19703776 1.0722828 0.97570735 -0.6733181 -0.48029023 0.22869097 -0.038727876 0.39938998 -0.89895666 1.0781996 -1.479495 -0.938938 -0.04524227 -0.5915671 -0.7768405 -1.6196212 0.16811822 -0.13170822 0.8332156 -0.93109494 1.081787 -0.63425094 -0.526475 0.2099917 0.48808768 0.6854855 0.29421735 -0.87406284 0.6108215 -1.7798269 1.0259979 -0.45905152 1.7467535 -0.29233962 0.13696995 0.013847599 -0.28302106 -0.7426614 1.3313665 -0.12172764 -0.57532716 -0.71360666 -0.5609821 0.5358689 -1.1727605 0.3880237 1.3434837 -0.016566498 0.2982156 1.4768943 0.49447483 0.27734515 -0.4494501 -0.75375 -0.061513327 -0.8565418 -1.0513525 -0.92831075 0.38693815 0.003131682 -0.845935 -0.9061403 0.90450025 -0.547098 0.8244537 -0.53467077 -0.8789954 -0.068403855 -0.42865962 -0.4287515 -0.5557219 0.13593937 1.8926364 0.70280313 -0.08048339 -0.8298648 2.3020217 -0.014102696 0.30001628 0.5408777 -0.4945484 -1.2327356 -0.4486426 -0.49565616 0.54903495 -0.2684768 0.9437223 1.3939174 0.5806145 0.32876247 0.13480897 0.104433015 -0.34112915 -0.9647802 0.59066844 0.4015961 0.009579667 -0.36932126 -0.32739344 -0.4047137 -0.72656006 -1.4801795 -0.97088397 1.3026536 0.40171364 -0.7802513 -1.2773583 -0.39419028 -0.2615166 -2.1702306 0.9120344 -0.5894516 1.7926486 0.5735616 -0.42964596 0.13773061 -1.2724057 0.5787175 0.08065333 -0.06120036 0.24714552 -0.22158399 0.19879428 0.30322096 -1.8556159 -1.3659859 0.37065345 -0.22861885
明 0.758593 -1.254557 -1.8478619 0.69912827 -0.14374647 1.3255479 -0.3222512 0.061222296 0.47028688 -0.3217911 0.18456249 0.3571461 -1.2320228 -1.7226623 0.51288515 2.3651047 0.015497614 -0.22533378 -0.6381427 2.3127706 -0.42631063 0.4144955 -1.0291189 0.29221532 0.5881393 2.680392 2.4395905 1.5489343 -0.4983844 1.3098525 -0.091814995 1.1647036 -0.9075924 -0.23547739 0.37938747 1.8251482 0.19629614 0.5951794 -0.43325803 0.4524887 -0.3824729 -0.43910307 -0.67607105 0.77542704 1.0508889 -0.85460746 0.75232613 1.1354975 -1.0902531 -1.3590571 -1.8416494 -0.5901981 0.07384506 0.33222255 -1.0035392 0.5812837 -1.4508672 -2.0049512 0.09897526 1.7631469 1.7141955 -0.50244546 -0.5864357 1.0945044 -0.70844495 -0.48838717 -0.42323896 -0.54238176 -0.3901627 -1.8101946 0.76621264 0.6748239 -0.65260667 0.91383517 0.6303294 0.07867259 -0.24528426 1.0103667 2.0681856 -0.81631094 -0.72309124 -0.42527056 1.215272 1.1440817 -1.3108628 1.2272068 0.5373581 1.9170568 -1.4831169 -0.5148324 -0.8375382 -1.0986558 0.97117424 -1.0344131 -0.64960426 -0.06369987 0.24621327 1.9801409 -0.86097467 1.7093894 1.2222744 -1.2583469 -1.2971454 1.537386 -0.81316453 -0.7834024 -0.77862585 2.9790256 1.172872 -0.08515325 -2.3743525 2.448854 0.7734761 1.0670325 -0.07352613 2.1091912 1.7134031 -1.0155476 -0.5201034 0.31406298 -0.7587759 1.079015 1.8473656 -0.5946153 0.53370893 1.0384138 1.6777155 -0.6813104
7 -0.11262062 1.1026895 0.56474197 -0.39608595 -0.9435802 0.8777974 -0.08021515 0.5064327 -0.60074645 0.90723854 -1.0971255 -1.4442418 -0.36084095 -0.67689395 -0.8573385 -1.1960194 0.3275922 -0.37655485 0.30569533 -1.0170652 0.7032836 -0.207003 -0.20193537 0.114580184 1.2590837 0.6805906 0.10829828 -0.49461195 0.37525275 -1.3535637 0.79023826 -0.4886898 1.8790767 -0.32350567 0.59457237 -0.5026184 -0.29367006 -1.01808 1.0935869 -0.37913746 -0.5977315 -0.4266137 -0.58895886 0.16953726 -1.2364672 0.2678311 1.3691022 -0.1637183 0.02562261 1.4951806 -0.015402068 0.3631044 -0.11514034 -0.6897487 -0.6095477 -0.96709865 -1.6202867 -0.32658458 0.22144142 -0.27794117 -1.6953757 -0.4552033 0.92168176 0.021406874 0.8363609 -0.5325312 -0.060593307 0.43481693 -0.029275509 -0.33382314 -0.25760108 0.54694676 1.1969941 0.6701741 -0.12751931 -0.4401904 1.9924668 -0.29925352 0.87064487 0.5955737 -0.42050356 -0.7240315 -0.15298721 -0.7941707 0.7583436 -0.5027864 1.3871387 0.9568231 0.2559383 0.68839824 0.5871832 0.11723779 -0.45317045 -1.218649 0.90185213 0.44011977 -0.19050547 -0.59142524 -0.016937414 -0.15093534 -0.28359634 -0.9038826 -1.0111781 1.0589437 0.3770274 -0.46860784 -1.3067787 -0.2298963 -0.32497782 -1.6278167 0.12669855 -0.12627886 1.6237755 0.8667231 -0.74705696 0.08407019 -0.9878593 1.1105167 0.5083973 0.10364943 -0.045421805 -0.14714447 -0.08174017 0.36657724 -2.1105912 -1.4701761 0.62368405 0.28839007
行 0.33305758 0.34226725 -0.32166287 0.78723073 -0.054326642 0.09582558 -0.08438847 1.6963007 -0.5010732 -0.009108772 0.31551445 0.1359475 0.82369506 -0.24360645 -1.1575643 -0.2679828 0.92944443 0.22687115 0.47657016 -1.1985981 -1.6244293 1.6345664 -0.78145105 1.7211733 -0.27753142 -0.3390048 -0.328428 -0.91131216 0.2805574 1.3580908 -0.7291348 -0.512385 -0.41999808 0.43465996 -1.5279636 -2.174901 0.7509698 0.8038671 -0.5283985 1.4014629 0.6291827 0.0003166059 1.1124126 0.150717 -1.2378217 1.1034018 0.21299691 -0.39289954 -0.56261414 -0.44587243 -1.552621 0.9623198 -1.1739676 -0.4543782 -0.88353866 -0.3985134 -3.0726478 0.784282 0.78042084 0.11097774 0.6941944 -0.20197661 0.48403424 0.3114669 0.69675684 0.42547998 -0.18931398 -0.29777133 0.5475735 -0.30633673 1.08348 -0.37823382 -2.024365 -1.2024231 0.7038047 -0.57661253 0.7759138 0.6184361 0.009435069 0.47012392 0.13037883 0.5133612 0.6040161 -0.091153696 -0.8737627 -1.3627589 1.0394347 -1.2002153 0.98118234 0.11238362 0.42523897 -0.7114638 -0.21091776 0.22246125 -0.59561515 0.6283254 -2.6161878 -0.43605903 -0.040162526 0.5350631 -1.1443774 -0.7335422 1.1786239 -0.3722054 -0.8355933 0.017670138 -0.108414076 1.2437365 -1.0025153 1.5319458 1.3465621 0.19356427 -0.26749107 0.35843688 0.4762043 0.6353756 1.2381761 0.72510755 0.85457426 1.2027707 -0.15281248 1.3573108 -0.9702531 -1.7167786 -0.9510478 0.16332638 -1.1233444 -0.88782054
+ -0.10033822 0.41753903 1.2366929 -1.7936149 -0.12320721 0.3365617 -0.32007727 -0.44648802 -1.3145852 -1.456523 -0.079747394 -1.2221708 0.9964711 0.57862574 -0.9093814 -1.6387051 0.31997025 -0.7792141 1.1569371 1.4837679 -0.43676922 0.7037459 -1.3369746 0.49860683 0.74759835 -0.20634265 0.5302703 -0.053844113 -0.11869259 -0.1802962 -1.1032522 0.8676828 1.1152116 1.0732207 0.045119397 -0.6768284 -0.4559195 -0.8297184 -1.9033111 -0.34760815 -0.027231624 -0.8676614 -0.036216237 0.24583729 -1.2241424 1.6023511 0.3536032 1.927795 0.6931867 0.72967404 0.6254918 0.27280906 1.1244321 -0.12582806 -0.6018199 -0.25884032 -2.2216115 1.5171155 -0.5060524 -1.6998974 -0.9723907 -0.97507495 0.43842345 1.3251712 0.89904463 -0.8366238 0.3655268 -0.5591922 -0.36262167 0.7768587 0.43240032 -0.4734533 0.7607133 0.19268419 -0.31255868 -1.1274539 0.62748486 -1.421332 -0.18482107 0.7253154 0.69984996 -1.2887903 0.29032362 -0.64066404 0.40306816 -0.5373581 1.106934 -0.42919743 0.3580653 0.33824742 0.47446644 -0.6350681 -0.64716345 0.065353215 0.28899577 0.47742033 -0.06715548 0.43362436 0.71432644 -1.0204879 0.5670832 1.2055756 0.2959671 -0.05872033 0.028163286 -1.0888222 -0.9492473 0.117218696 0.14919955 1.0880367 0.30314112 0.38466486 0.1083596 -0.57086307 -0.9435926 -0.6363207 -2.0240633 -0.046299037 -0.29709858 -0.7611344 -1.0438672 -0.08995006 0.7872156 0.95937467 -1.1060817 -1.6941681 0.95631015 0.57581866
出 0.30550405 -0.81396145 -1.9158027 2.0757148 0.104266986 0.6093663 0.16327098 0.9734193 0.7737273 -0.33369964 0.9004291 0.7914121 -1.4905231 0.014757013 0.36963743 -0.13859944 0.42307281 0.27349445 -1.1164337 -0.20454326 1.1768417 -0.15890583 0.4634782 -0.15492937 -1.0698118 1.3896348 -0.8544487 -0.19491635 -0.8963133 1.4328299 -0.28174552 0.18007633 1.1818088 -0.16962546 -2.114507 0.33400804 1.4895787 -0.7643081 0.905711 0.47871268 0.097251385 -1.1277058 -0.10782894 3.0026822 0.84299195 -0.87859344 -0.054582693 -0.93923396 0.7002485 -0.8948542 -1.0709898 -0.5908972 -1.3693575 0.34402645 -0.7188709 1.0169048 -0.9643113 0.15095682 1.5603999 1.0455582 -1.261085 0.30365533 -1.4100583 1.7485503 -0.054783486 1.1684821 -0.50538826 0.076281235 -0.06518766 0.026942376 -0.20178829 0.48663124 -0.7775264 -1.4994774 0.3890428 -0.7942208 -0.104255885 1.8659523 1.6433029 -1.8116856 0.47076514 -0.5926971 -0.51160103 -0.14408554 1.4063689 -1.0281974 0.4874957 -0.6755023 -1.1192623 -0.31488824 -0.7788836 0.3016468 1.1493068 0.19779778 -0.9447002 0.23584028 0.08497313 1.2229217 0.87765986 0.7647015 -1.9783785 -1.297895 0.14358196 0.9531049 0.4580059 0.5052726 0.4593675 1.5285622 2.155238 -0.39488426 1.2057114 0.71712935 -1.8295757 -1.8736328 1.6119891 -0.54177856 2.0774643 -1.5553561 -0.07449823 0.47209483 0.7677278 0.89384776 -0.45037064 -1.8816662 0.30898386 2.3631 -0.16163594 -0.5005149
音 -0.06948675 2.3713403 1.6829176 1.9623092 -1.2665367 1.5452201 0.7032921 0.777883 -2.3449092 1.7783645 -0.2945579 1.0117226 -0.48881304 -0.7972516 1.7820718 -0.36168194 0.20183517 -0.106054924 -0.208637 1.648519 -0.09188495 -1.3342546 -0.6471273 -0.36311492 -2.5184581 0.90755105 -1.9538696 -1.6830395 0.25532112 2.4679768 1.8180691 1.8114842 -0.5179398 0.8305919 -0.69345313 -0.80896276 -0.60329336 0.35620418 -0.5184898 1.2605938 -1.7398282 1.1259751 0.2561821 -2.222143 0.9298569 0.063780874 -1.5667108 -1.1561605 -1.0849267 -0.5106779 0.8451558 0.68828684 -0.597567 0.30652088 0.33635387 -0.4160463 -1.5156835 -0.7469135 -1.6747255 1.3026855 -2.3103013 -0.7164311 -0.20300718 -1.387407 -1.0216666 -0.17256598 -0.30904397 1.4740674 1.0555347 1.2693878 -3.0271163 -0.44333252 -1.4526953 2.462569 1.4877626 0.11328582 1.0999484 -0.48206392 0.55862916 -0.72097546 -0.32337248 -0.8707319 -0.13818732 1.4516864 0.5128894 2.8359954 -0.56135696 1.0871425 0.10837815 0.93023807 -1.1536484 0.17204171 0.3604725 0.36146167 -0.9665458 0.76004934 -0.917719 -0.060227677 -1.9577322 1.2563312 0.14302942 0.361026 -0.76266557 0.6198871 1.0418781 -1.7195014 0.39008236 1.1091783 -0.18188746 -0.8304291 -0.85874736 1.6529841 -1.0052298 -0.6372891 0.12544861 2.5089145 -0.1505138 -0.5636755 0.9117926 -0.7624477 1.4063075 1.3872416 1.0586406 -0.025417926 1.8336221 0.061311793 3.0956333 0.5406703
显 -1.3817513 1.5450068 -2.434354 2.1006665 -2.6042652 -0.07698207 1.367082 0.88209933 1.5881176 0.4938179 -0.025403664 1.5300453 -0.07066033 -1.386327 0.52901053 0.6523701 0.55197066 0.36083278 -3.0856164 1.5689054 -0.46003821 -0.24139923 -0.28647065 0.30601436 -0.9272878 1.1877391 -1.7103703 -0.15671481 0.02332306 -0.55925435 0.21887776 0.1818625 0.061705187 3.0567412 -1.7828176 -0.75483996 1.1230198 0.14670816 1.552171 0.6543908 0.996452 -0.97130406 2.1423576 -0.35072333 1.9035891 -1.785509 -0.420991 -0.5861755 2.2334096 -0.7386329 0.6310546 -0.7023202 0.07244935 0.06907071 1.0097461 -0.55628186 -0.40033504 0.20236103 0.52149177 -0.26887855 -1.0093209 2.668664 -0.6491533 0.20874049 -0.97206885 1.2617345 -0.868225 -0.7442184 0.70151377 0.47555315 0.50659066 0.6863688 -0.15534279 0.3675924 0.43585154 1.8229682 0.11245439 0.6625452 1.1864463 0.2864969 -0.42617202 -0.58407927 -0.07220929 -0.009271558 -0.9941335 1.0654022 -1.8251743 -1.2311976 -0.8796246 -0.72126025 -1.2966607 -0.86733055 -0.91003937 1.391287 -0.37482098 -2.5143566 0.299952 -0.18117484 0.4288443 -0.1306332 0.35225594 -0.37390673 -0.6137219 -1.2968144 0.9011665 -0.5707488 -1.350686 2.4039564 -0.4433806 -0.48795447 -0.85854125 2.223944 -1.4854572 1.4901475 1.518911 -1.0896425 0.044791818 0.5798898 0.7391897 0.3950334 0.17005242 -0.98825216 -0.099514894 -1.4247247 2.3726335 0.17339395 -0.7014904 -0.09532189
侧 0.84455407 1.3817259 -0.55703825 -0.31839496 -0.40023512 0.6732999 0.6267409 -0.05382868 -0.9253153 -0.77092737 -1.0043132 0.80930465 0.8064268 -0.8009278 1.4362893 -0.16541834 1.2326409 1.3115218 -2.5629673 1.1604131 0.096114375 0.3681351 0.27133515 -0.34498468 -0.048309106 -0.08295319 -0.69414556 0.77199984 0.31866688 0.82953286 1.5975112 0.15914068 -0.19076693 -0.6098966 0.049180817 -0.17458656 -1.0318117 0.5161178 0.025204042 -0.08418067 1.1480796 -0.97279733 0.24402736 0.26014534 0.93321687 0.49516857 0.6046755 0.37787715 1.2757518 0.5245884 -0.5611235 1.4330761 0.62928647 -0.03987777 -1.6892843 -1.1779969 -0.12185054 -1.395846 0.53036666 -1.7066283 -0.69923943 -1.3075659 -1.3777692 -0.81742734 -0.288631 0.06903096 1.6823153 -0.81564695 0.6560281 -1.3960936 -1.8078911 1.390896 0.7784128 0.26591522 0.7843327 -0.26924124 -0.93225366 -1.213663 1.6342517 0.13048357 -1.0182011 -0.21132953 -0.07138924 1.3284134 -0.94431674 2.2139065 -0.23701452 -0.27127042 1.0295407 -0.068092674 -0.15086515 -0.19617954 -0.7365477 0.7820576 -0.49201062 0.18805124 -1.0753939 0.057233337 -0.30555588 1.6996638 0.8741362 1.0794104 -1.535828 -0.108426675 0.24836665 0.5720811 -0.22721018 -0.025624266 0.15357405 1.7097256 0.3473402 -1.7604922 -1.2150705 0.025083339 -0.32090417 -1.2746781 -1.4101489 0.44920933 0.82829934 -1.3429453 -1.9707905 -0.95626724 -0.7535203 1.1941669 1.9565885 -1.2804009 0.92654186 1.1202726
前 -0.95211667 -0.3940566 -0.6057479 -0.5901892 -1.1858617 1.3490808 0.914183 0.28600198 1.6827505 0.59611124 0.1409125 0.5310752 -0.8392406 -1.9003227 -1.7386744 1.0085865 0.5642527 -0.18817414 -2.2414575 0.24877529 -1.5761099 0.8981887 -0.55554044 0.1977242 0.5526683 1.6886519 0.83182263 0.4690256 0.32038245 0.18144056 0.93709534 -1.6981151 0.7316162 0.13290188 0.47217974 0.18722974 0.25278974 -1.5432011 0.7333561 -0.13368006 0.028280796 -0.7239787 1.0247704 0.7074132 0.5636758 -0.82272786 0.87580574 -0.52226615 -0.5399174 -0.17393476 -1.0665754 -0.083863564 -0.067362584 -0.057498563 0.2449347 0.8917629 -0.61548233 -0.021746537 1.1580713 0.5204162 -0.7079437 1.1977887 0.2502264 1.0294507 -0.9752343 0.5467449 0.26861382 -1.9884635 -0.17891042 -0.32860467 0.52382404 2.3687723 0.8053064 -0.25538638 -0.28510046 -0.64149535 0.90129054 0.5904572 1.2470249 -1.1051749 -1.3000894 -0.7424251 0.58352923 0.3463801 -0.47879562 1.0909374 0.09297701 -0.12958436 0.38859263 -0.7121274 -0.34151325 -1.2969472 -1.4647703 -1.1520027 0.51139736 0.097075455 0.067514434 -0.26086482 -0.8818218 1.4066226 1.245801 -0.89047724 -1.3077136 0.6416628 -0.2600348 -0.7034407 -0.9777506 1.5207622 -0.21974193 -1.4225765 -0.98204905 1.0379138 -0.07445053 1.849403 0.68388724 -0.841223 0.7157405 1.1933484 -0.114906944 0.6081957 -0.024892136 -1.0733193 -0.76919067 -1.9678667 -0.28003734 -0.6420299 -0.9692753 0.05393032
9 -0.087289646 0.84758264 1.1750119 -0.36385563 -0.7530002 0.299577 -0.37749836 0.78251153 -0.9220145 0.83116466 -0.643503 -1.2096547 -0.11853241 -0.304933 -0.664246 -1.8788991 0.3344369 -0.73089063 0.43433434 -0.6986304 0.48361045 -0.3916971 -0.6890985 -0.17059892 0.48155397 0.5129084 -0.2842825 -1.0240259 0.12891436 -1.6117842 0.50489104 -1.1299698 2.0050194 -0.5855417 0.40255216 -0.10185258 -0.0073722047 -1.2445277 1.4212759 -1.0216163 -0.29310453 -0.16379789 -0.810835 0.36396846 -0.96896785 0.4879818 1.0182394 -0.7545926 -0.028535184 1.952271 0.38670185 0.20502089 -0.29097107 -1.6628273 -0.7023319 -1.3255763 -1.5820462 -0.32299212 -0.1499461 -0.52706057 -1.3976675 -1.0361464 1.5099207 -0.90736675 1.426898 -0.83829933 0.029213343 0.18944177 0.020292375 -0.6840991 -0.19174394 0.4276638 1.3947116 0.27211213 -0.10723121 -0.34399188 2.1795068 -0.2352907 0.5143125 0.35871786 0.45173395 -0.17626584 -0.6332036 -0.21448968 0.9024848 -1.1690761 1.3732105 1.3157539 1.0539013 0.5876084 0.41422293 0.13280407 -0.45141396 -1.1498525 0.78239465 1.0470927 -0.34969544 -0.5482362 0.049011555 -0.14348713 -0.48322135 -1.2907476 -1.255465 1.1247836 0.8330728 -1.216773 -0.80995136 -0.25301218 0.013560423 -1.8091869 0.9417363 -0.5082517 2.4352612 -0.044048727 -0.4573395 0.44306704 -1.0417147 0.81521297 0.13201812 0.28346145 0.2975083 -0.80652446 0.3509629 0.4978162 -2.4543686 -2.4455347 0.60153794 -0.55917555
肿 1.1592028 1.4965659 -2.1204216 -1.9241825 -0.08842175 1.7777191 0.037203554 -0.66144824 0.008867909 -0.77981526 -0.96461517 0.6131146 -0.6578371 0.4375022 1.7719519 -0.9200279 -0.34704626 2.22379 -2.097222 1.635276 -1.4388934 -1.6010872 1.1684234 -1.5410285 -0.60723853 1.4335189 -2.2953215 1.1174132 -0.4201776 -1.3328689 -0.23798387 1.1123912 -0.520843 -0.40916035 1.0830587 1.2503587 0.02684017 0.67040026 0.76331866 -0.25790754 0.23208569 0.5066399 0.7486961 1.8622851 1.9801475 0.92861694 -1.2172332 0.5165042 1.7732377 -1.2553747 1.1429486 1.0869331 -0.22284047 0.0857395 0.2202683 -0.1424999 -1.5503964 0.14289217 -0.20737568 1.2412684 0.46836337 -0.41447356 0.85519904 -0.5591881 0.18738396 -2.3586833 -0.16207011 -2.1115193 2.0763426 -0.8171073 0.56327134 1.4333584 -1.3351053 -1.6470956 0.9466814 0.014425164 -1.5764215 -0.824837 1.1086078 0.14265893 0.929389 -0.54780024 -0.6618955 1.3690245 0.23959641 0.16112213 -0.31720343 0.74252754 -0.31455335 0.03431025 -0.22922643 1.5997535 0.77944434 1.1808307 0.41852146 -1.5713997 1.9289262 0.062442664 -0.8541502 0.34258434 1.3651264 -0.75586903 -1.7788165 1.208396 0.34608364 -2.6027348 -1.0527902 0.7973909 -0.37400728 0.10550705 0.12996668 1.3511027 -1.330644 1.2627506 0.24188095 0.39740098 -0.06334092 -1.2111855 0.62941 0.74428463 -1.3342843 -2.0373394 -1.6825155 0.36087823 -0.16155207 1.4713225 0.14730148 1.0397644
C -0.1430061 1.5669193 0.8956512 -0.57071334 -1.1790566 -0.3179145 0.72054464 -1.2012928 -0.46058187 -0.08445739 0.45157847 -0.27184647 0.5338626 -0.08860842 0.91870135 -0.7948851 0.31417367 0.06342935 -0.23759352 0.31312132 0.65982693 -1.1863899 -2.1181424 1.3668419 0.0021355115 0.7084662 -0.44929406 -2.0556796 0.8614044 -1.4504021 0.10997618 0.80609936 1.3842862 0.33827975 1.1953121 -2.0105898 -0.92133826 -0.3329899 0.5023273 -0.63291657 -1.071201 -1.27011 0.34056446 1.5071849 -1.85646 0.17906132 1.8488414 0.96707916 0.42817014 1.4150801 -1.4113894 0.15254259 -0.40612352 -1.5790334 -0.23987423 -1.0445843 -1.5760306 1.6657618 0.86319095 -0.80956215 0.42765805 -0.8849759 -0.70648545 0.20152391 -1.0868316 -0.5985049 0.056644674 -1.0735023 0.6427438 -1.7911749 0.29605606 0.35949093 -0.5128912 1.525184 -0.005465032 0.48766088 0.6450979 -1.4826084 -0.15562052 0.9026837 0.7573611 -0.24131086 -0.29096028 -1.4524832 0.7618935 1.4054284 -0.7283428 1.0983826 -1.3467041 0.035053477 -1.0294926 -0.7422345 -0.8255896 -0.52092624 1.3923559 -0.4821678 -1.3385807 1.0823891 0.62281674 0.42430004 0.8657265 -0.27421674 0.058139343 -0.97394687 -1.4205296 -0.85800314 -0.9199741 0.26312664 1.3146982 1.4209127 0.5878433 0.29334325 1.7620536 0.56991076 0.011247727 -0.0024584644 -1.3599699 0.29779923 0.23461668 1.030329 -1.7910885 -0.054344933 -0.7848122 0.41369057 -0.5144035 -0.9185594 -0.32984588 0.63270414
神 0.89161533 -1.1793953 -0.6444729 0.6627208 -0.6094765 -1.001825 1.3163912 0.34369874 -1.241322 1.5557182 0.027518567 0.079493016 -0.2849778 1.5587391 -0.01393066 0.90651643 1.221915 -0.636443 0.98958766 -0.02819382 -1.3666173 0.8848441 -1.1286021 -0.3954889 -0.5645667 -0.11783105 -0.6514972 0.5929287 -0.77215225 -0.5511905 1.2879338 2.1505346 -0.16492969 1.079033 0.68256176 -2.66227 0.5960205 2.0646005 -0.16098703 -0.15154222 0.07643332 -0.22560705 2.4578226 -1.0281603 1.4844759 -0.11905503 -0.3912804 -0.9433718 -1.2886387 0.15563993 -0.6656252 0.11269449 -0.3367039 0.8843651 0.8324743 -1.3527532 2.4295437 -0.33832726 -0.09587554 0.112042874 1.3370756 1.3855475 -1.4317064 -0.07229836 0.6530523 0.66934526 0.6097575 4.049377 -0.06729254 2.2770085 -0.36421227 0.11070299 1.089098 1.694429 0.1151701 0.030891135 0.9546558 -1.9548888 0.8789646 0.37034875 -0.050433278 -1.6623607 -1.532025 -0.5321873 -0.19281882 0.68366605 1.4744948 0.0052462686 1.2354538 -0.080055304 -2.6221042 -1.3257065 -0.59911305 1.8595555 -0.45082888 1.2469362 0.5436827 -0.139255 2.1748815 0.47321373 0.72805893 -1.9496143 0.22583194 0.561432 0.8367827 0.89792424 -0.99062145 -1.7401242 1.9268125 -0.8652091 0.06083153 -1.2072306 2.9248753 -1.4435663 -0.44546387 2.6232214 -0.81435347 -0.8065536 1.6076533 0.37900317 0.34176436 0.38050234 -0.49221566 1.2259446 -0.030652627 0.8625784 0.45704722 0.108099155
为 0.6728757 -1.1774576 -0.5579219 0.7456062 -0.89905274 -0.47834367 -1.6320282 -0.641734 -0.40447354 1.4974728 0.31741887 0.829809 0.3820967 -0.8090109 0.061537616 -0.3412004 -0.4421405 0.62513274 0.40246287 -0.6979499 -0.040133245 0.60749775 0.4211699 0.10810787 -0.25387895 0.64178604 2.2387114 -0.18466946 1.2382538 0.061073735 0.47699946 0.5239011 -0.58967566 0.5385837 -0.46401706 0.69409466 -0.15678367 0.99514043 -1.1525925 0.17285962 0.10023046 -0.33228758 -0.1649721 0.7879049 -0.065222606 -1.6434078 -0.44876295 0.37666142 1.2742343 -0.4118579 -0.9912981 -1.2020221 -1.8016592 0.39934325 1.2799826 0.2824785 0.24272259 -0.06364436 0.7091701 0.45092162 0.27794594 -0.33454353 0.2227838 -0.6244588 2.3236324e-05 -0.6151708 -0.5530069 0.08891547 -0.22699343 -0.30741027 0.16924061 -0.5169642 -1.0072899 -1.3865322 0.88884205 -0.6902954 1.0216842 0.556587 0.6440436 -0.7103674 -0.05936368 -1.3821938 -0.30656433 -0.10849249 -0.28319427 -1.5238725 -1.1915255 0.0785284 -0.674264 1.7572525 0.68029577 1.0985434 1.085141 -0.2975568 -0.44651505 0.69039005 -0.9158678 -1.1042751 -0.54534674 -0.16293694 0.46679074 -0.4919754 0.2704853 -1.1402996 0.12803961 -0.533087 0.11231248 0.40585646 -0.10958947 -0.5529809 1.1922537 0.24450527 -0.4611902 0.041177765 0.45481965 0.6424387 0.5382865 -0.52930796 0.21274987 0.49976763 -0.7484673 0.39352682 -0.38200036 -0.8772083 -0.066558756 0.48288378 -0.72341144 -1.0256327
m 1.1099447 0.35438538 -0.60533005 0.92944676 -0.6658622 -1.7538426 -0.4598274 0.39380735 -3.0225449 -1.4922171 -2.6176336 -1.0288252 -0.059349526 -0.61955667 -0.38344362 -1.1005504 1.7493931 -1.3466897 0.96910655 1.0058142 1.195115 -1.1131569 -0.67915773 -0.9124643 0.5571985 0.5036309 -0.57772225 -3.3502429 0.4906077 -1.4811063 -0.14872496 -0.69368654 1.3400245 -0.26321986 1.0612662 -1.0624019 -0.79181343 -0.94953364 0.88185513 -0.8053622 -1.3929007 0.14364572 -0.84339416 0.2818095 0.5953609 0.39103386 2.613524 -0.6218834 -1.0413303 0.24391603 3.5363827 -1.7937751 0.36159217 -0.3964179 -1.2849449 -3.2211986 0.28217816 0.3930716 -1.0094181 -2.262471 0.22233202 -1.1155095 -1.2203095 -2.905106 0.54370934 -1.0718471 -0.926676 2.1636417 0.38196823 0.42772844 -0.2532731 0.2311365 2.815257 1.0198764 -1.4636114 -1.6742206 0.89550036 -0.6276172 -0.56291085 0.04190451 1.004704 -1.1062728 -1.4473835 -0.34838519 2.131836 -0.6035663 0.4066214 1.1256359 0.6111669 -1.9611416 -1.2041445 0.973023 -0.005927892 -0.8318894 1.6155365 -0.4083365 0.42249003 0.04075209 0.72401345 0.08465096 0.41066813 -2.480177 -0.7125649 1.4808706 1.555375 -0.024968622 0.2165611 0.0026865974 -0.91650546 -0.98989743 1.0980546 -0.7105626 3.4819827 -0.6903286 -0.57101816 0.2943718 -2.2582963 0.07541657 0.0625977 -1.1828866 -0.21353883 -1.9042386 1.3511959 1.1965789 -0.6218216 -1.4323988 -0.34156302 -2.4615762
头 0.7215988 0.28311303 -0.29081193 -0.49035692 0.1495099 0.21172725 0.82748026 -0.8136707 -0.14147009 -0.728547 -0.6766497 -0.99082756 -0.24152043 -1.0132434 1.6106102 0.16995509 0.75287235 0.74882674 -0.7986214 -0.57015526 -0.2519025 -1.4041274 -1.8286179 -0.0277477 -1.067381 1.5125325 -0.40287632 -0.67590135 -0.8106149 -0.18655403 -0.19375898 -0.2398399 0.85087526 0.8796635 1.2816724 -0.60823804 0.16925865 -0.21168117 0.8850867 0.98650163 -1.1394297 0.23448536 -0.17420396 2.7356796 0.30166665 -0.030101385 0.62902045 -0.3983179 -0.27186322 -0.029763736 -1.4277273 -0.7248827 -0.3993534 0.5753768 2.143313 -0.35562533 1.149737 0.35630158 0.04949827 0.9058791 1.1289947 2.5279984 -1.6939745 0.58782756 -0.62934077 1.4099694 0.88081425 0.5789687 -2.0098503 -0.8062534 2.146367 0.87665355 0.8464545 0.34424263 2.3687139 0.7428532 0.47477219 -0.094748825 0.31067804 0.6923343 -1.2450203 -0.05161207 1.4147048 -0.43441194 -1.2228702 0.6448907 1.6842549 0.6091671 -0.59418035 -1.5989221 -0.81962144 -1.2418157 -0.44511724 1.6642497 0.36860907 -0.44703996 0.67721677 -0.11017957 0.023743927 -0.99711365 -0.95526296 -0.6483519 -1.4035109 -1.1449437 -0.5952477 -0.36207068 -1.3861294 -0.37621415 1.0285554 0.9139589 0.21674083 -1.041829 1.2373873 1.2639061 -0.11462446 -0.5058255 -0.42967293 -0.16520903 -0.54369634 -1.2167845 -0.42120594 -0.05053332 -0.9174375 -0.49425644 0.990377 2.1143074 -0.36850274 0.4455449
T 0.5018291 1.2403414 0.4247169 -0.54824257 -1.6989869 0.14172764 0.28487942 0.13717856 0.0295576 0.40295205 0.8975636 -0.11999818 2.1304605 -1.1304156 0.7080207 -0.25124747 0.3182912 0.51826763 -0.5364008 0.7162393 0.70615035 -0.14723063 -1.3100537 0.58650583 0.31366852 -0.45043194 1.0541246 0.47389656 -0.256449 -1.4084 1.1101086 1.2841663 0.99888086 2.0477324 0.25025338 -1.3748213 -0.07705289 0.07821403 -0.66834 0.4423396 -1.0136116 -0.6944765 -0.12764321 1.5059786 -2.0961266 -0.098729976 1.4139152 1.0909647 0.28732932 0.09452717 -1.5259861 -0.41065392 -1.7871169 -0.35937467 -0.6726019 -0.1997197 -2.467561 0.9162951 0.8887893 -0.6815878 -0.6809729 1.4089139 -0.758268 1.9588352 0.36614373 -0.8881539 -0.27441913 -1.4016731 -0.013317503 -2.629692 0.7911896 1.3843045 0.011795518 1.4571993 -0.04930494 0.70043284 1.1521962 -0.48187912 0.38424602 2.0819209 -0.4214532 -1.1203853 0.29922822 -1.5122508 -0.6220432 1.062762 1.4877045 0.9719255 -1.1415775 0.049996246 -0.18983033 -1.2404578 0.43980178 -0.011275566 0.35814565 -1.6097528 -1.1224666 0.9195843 1.2021581 -0.57410455 0.7884099 0.4365359 0.37760505 -0.060352426 -1.0839278 -1.2916883 -1.1944374 -0.15631185 1.0541891 1.3400592 0.9545821 -0.84357625 2.4856014 -0.2924655 -0.49895382 -0.74494654 -1.7154845 -0.15489902 -0.97818923 0.4399461 -1.6117055 2.0422013 -1.367542 0.28493184 1.0845755 -1.1811895 -0.7010781 0.50763214
便 -2.5545425 1.4108337 -0.77438694 0.16147247 0.97831166 1.4436321 1.2044661 -2.4103644 2.0552497 -0.79039305 -1.1162719 0.112735085 -3.672582 0.57340175 1.7397507 -0.28231275 1.33496 0.4365823 -1.1521317 0.80511314 -0.39190203 1.0103356 0.2100653 -0.022562824 -0.9705931 2.6042316 -1.47999 -0.75492615 1.1926827 1.5157022 2.3068776 0.7379039 0.7786778 -0.347935 -0.48384905 0.090091236 0.30870152 -0.74807906 1.8766791 1.1254095 0.19457789 -0.68782324 1.0083692 0.78809595 1.73023 -1.4342158 -0.6556586 0.23029973 0.82395947 -0.53034693 -1.0410092 -0.5960404 -0.8514418 -1.4374187 0.6501106 0.83259684 0.03759483 -0.9311245 2.2883608 1.6076825 0.54367965 2.9659228 1.5517476 0.33985177 1.0128653 -0.3980493 -1.286984 -0.35174015 0.41397724 0.9354867 -0.58331555 1.3417877 0.16737178 -1.8029305 0.8559103 1.1071332 -0.12374683 -1.8687321 0.5342411 -0.6032394 -2.1617916 -0.1310657 -1.1910121 0.21922238 0.8687637 2.7434366 -1.8674546 -0.019393343 -1.432765 -1.1401218 0.5210416 0.63557625 0.9049754 -1.8522 -1.2342099 -0.02341755 0.5081838 -0.339615 0.51468915 -1.0244824 -0.16728877 -1.6099039 -1.5094606 1.055625 -0.57851523 0.62699157 -1.5421286 0.657648 2.0542834 -2.2612197 -0.193925 -0.1808615 0.79129416 1.5897721 0.37296847 1.8383505 0.2588247 -0.078962564 -0.51232433 0.10120167 0.6474039 0.6468339 1.0460966 0.19233239 -0.4744021 1.8353665 -0.96345234 0.53076786
不 -0.018563204 -0.1965405 -1.1765662 -1.0311973 -0.3307823 0.34885782 -0.46771616 -0.3860628 0.27765942 -0.41450346 -0.8954583 1.3023307 0.23641251 0.9851237 0.31033745 -0.885252 0.47280285 -0.33054322 0.33625337 0.9672642 -1.8913189 0.49106786 -0.47616205 -0.19212596 -0.47396883 1.7085462 -1.0176711 1.693681 -0.26222616 -0.14254443 0.115126066 -0.06548503 0.59712225 -0.49803555 0.19400239 -0.23677774 1.230707 -0.013370315 -0.30736285 2.3358853 0.19674036 0.67095584 -0.37758052 -0.39064553 2.2824776 0.2282306 -1.3466471 0.6434849 0.40339896 -0.12622143 -0.46921936 -0.8137893 1.1990522 -0.69830436 0.48938164 0.17937374 2.0035021 -0.2111339 0.73775357 -0.2289422 -0.6037664 1.350347 -0.25617844 0.7785009 -0.2990595 -0.6290296 -0.16172083 1.5730605 -0.57146335 -0.15125962 0.46316954 -0.3687919 -0.39962134 -1.306125 1.3097041 -0.33908048 0.83284783 -0.54231805 -0.96444017 -1.4965309 -0.7360604 -0.58588207 1.4175907 -1.1623447 -0.51675636 1.534141 -1.7252789 -1.3967394 -0.74514246 -0.41302934 -0.54439926 0.73518634 0.7007773 0.84869564 0.5628533 -1.6374608 0.66136754 -1.9035871 0.19715267 -0.41082886 -0.47434217 1.1054778 1.4620788 1.1503185 -1.2350625 -0.8530789 -1.1388837 1.3500375 -0.37385938 -1.1848955 -1.0316694 0.28770584 -1.0788203 -0.14080337 -1.2155371 0.62245274 1.3979145 -2.5694711 0.82387424 0.4042881 -1.0903196 -0.11408806 2.0785139 -0.39265952 -0.4446494 1.7491424 -0.078070305 0.4499734
